<?xml version="1.0"?>
<opencv_storage>
<cascade>
  <stageType>BOOST</stageType>
  <featureType>HAAR</featureType>
  <height>32</height>
  <width>32</width>
  <stageParams>
    <boostType>GAB</boostType>
    <minHitRate>9.9500000476837158e-01</minHitRate>
    <maxFalseAlarm>5.0000000000000000e-01</maxFalseAlarm>
    <weightTrimRate>9.4999999999999996e-01</weightTrimRate>
    <maxDepth>1</maxDepth>
    <maxWeakCount>100</maxWeakCount></stageParams>
  <featureParams>
    <maxCatCount>0</maxCatCount>
    <featSize>1</featSize>
    <mode>BASIC</mode></featureParams>
  <stageNum>20</stageNum>
  <stages>
    <!-- stage 0 -->
    <_>
      <maxWeakCount>8</maxWeakCount>
      <stageThreshold>-9.4428968429565430e-01</stageThreshold>
      <weakClassifiers>
        <_>
          <internalNodes>
            0 -1 446 6.2817595899105072e-03</internalNodes>
          <leafValues>
            5.9018987417221069e-01 -6.3667231798171997e-01</leafValues></_>
        <_>
          <internalNodes>
            0 -1 75 -1.3365183025598526e-02</internalNodes>
          <leafValues>
            7.3898059129714966e-01 -2.7122998237609863e-01</leafValues></_>
        <_>
          <internalNodes>
            0 -1 121 -4.2301318608224392e-03</internalNodes>
          <leafValues>
            8.0506920814514160e-01 -2.3210653662681580e-01</leafValues></_>
        <_>
          <internalNodes>
            0 -1 77 -7.7093327490729280e-06</internalNodes>
          <leafValues>
            4.2874783277511597e-01 -4.3647015094757080e-01</leafValues></_>
        <_>
          <internalNodes>
            0 -1 118 -3.4593963064253330e-03</internalNodes>
          <leafValues>
            7.4587237834930420e-01 -1.9848719239234924e-01</leafValues></_>
        <_>
          <internalNodes>
            0 -1 611 6.2537774283555336e-06</internalNodes>
          <leafValues>
            -4.5118856430053711e-01 4.3431544303894043e-01</leafValues></_>
        <_>
          <internalNodes>
            0 -1 162 -1.6946546733379364e-02</internalNodes>
          <leafValues>
            8.8089931011199951e-01 -1.7435678839683533e-01</leafValues></_>
        <_>
          <internalNodes>
            0 -1 168 -5.7584393769502640e-02</internalNodes>
          <leafValues>
            -7.6387059688568115e-01 2.2935964167118073e-01</leafValues></_></weakClassifiers></_>
    <!-- stage 1 -->
    <_>
      <maxWeakCount>14</maxWeakCount>
      <stageThreshold>-7.9027146100997925e-01</stageThreshold>
      <weakClassifiers>
        <_>
          <internalNodes>
            0 -1 503 3.7321480340324342e-04</internalNodes>
          <leafValues>
            -2.1993499994277954e-01 6.0164082050323486e-01</leafValues></_>
        <_>
          <internalNodes>
            0 -1 14 -3.0689039267599583e-03</internalNodes>
          <leafValues>
            7.6274091005325317e-01 -1.7835249006748199e-01</leafValues></_>
        <_>
          <internalNodes>
            0 -1 567 -2.2367534693330526e-03</internalNodes>
          <leafValues>
            7.3841226100921631e-01 -1.3560403883457184e-01</leafValues></_>
        <_>
          <internalNodes>
            0 -1 464 -2.8714870568364859e-03</internalNodes>
          <leafValues>
            2.5367403030395508e-01 -4.7514650225639343e-01</leafValues></_>
        <_>
          <internalNodes>
            0 -1 224 -3.9356932975351810e-03</internalNodes>
          <leafValues>
            7.3267823457717896e-01 -1.7663340270519257e-01</leafValues></_>
        <_>
          <internalNodes>
            0 -1 74 -2.4187475442886353e-02</internalNodes>
          <leafValues>
            5.3416025638580322e-01 -2.2946253418922424e-01</leafValues></_>
        <_>
          <internalNodes>
            0 -1 10 9.0019199997186661e-03</internalNodes>
          <leafValues>
            -1.6146314144134521e-01 6.8868041038513184e-01</leafValues></_>
        <_>
          <internalNodes>
            0 -1 568 9.9838059395551682e-04</internalNodes>
          <leafValues>
            -1.4114025235176086e-01 6.8114155530929565e-01</leafValues></_>
        <_>
          <internalNodes>
            0 -1 146 -7.7371448278427124e-02</internalNodes>
          <leafValues>
            2.3249207437038422e-01 -5.3268182277679443e-01</leafValues></_>
        <_>
          <internalNodes>
            0 -1 207 -3.4125796519219875e-03</internalNodes>
          <leafValues>
            5.3253662586212158e-01 -2.3045314848423004e-01</leafValues></_>
        <_>
          <internalNodes>
            0 -1 311 -3.1437664292752743e-03</internalNodes>
          <leafValues>
            6.6596078872680664e-01 -1.4152742922306061e-01</leafValues></_>
        <_>
          <internalNodes>
            0 -1 352 1.9263594876974821e-03</internalNodes>
          <leafValues>
            -1.6966259479522705e-01 6.0971283912658691e-01</leafValues></_>
        <_>
          <internalNodes>
            0 -1 521 -7.1005208883434534e-04</internalNodes>
          <leafValues>
            6.3286042213439941e-01 -1.3807378709316254e-01</leafValues></_>
        <_>
          <internalNodes>
            0 -1 525 7.8522594412788749e-04</internalNodes>
          <leafValues>
            -1.2506389617919922e-01 6.2763798236846924e-01</leafValues></_></weakClassifiers></_>
    <!-- stage 2 -->
    <_>
      <maxWeakCount>19</maxWeakCount>
      <stageThreshold>-1.1038610935211182e+00</stageThreshold>
      <weakClassifiers>
        <_>
          <internalNodes>
            0 -1 396 -3.9620425552129745e-02</internalNodes>
          <leafValues>
            5.3821140527725220e-01 -3.1506848335266113e-01</leafValues></_>
        <_>
          <internalNodes>
            0 -1 49 -5.6145410053431988e-03</internalNodes>
          <leafValues>
            6.2640702724456787e-01 -2.2145636379718781e-01</leafValues></_>
        <_>
          <internalNodes>
            0 -1 474 5.4764136672019958e-02</internalNodes>
          <leafValues>
            -1.7182840406894684e-01 6.9258546829223633e-01</leafValues></_>
        <_>
          <internalNodes>
            0 -1 93 9.4408320728689432e-04</internalNodes>
          <leafValues>
            1.7434102296829224e-01 -5.8887338638305664e-01</leafValues></_>
        <_>
          <internalNodes>
            0 -1 524 -8.1538790836930275e-03</internalNodes>
          <leafValues>
            5.3642016649246216e-01 -1.9088718295097351e-01</leafValues></_>
        <_>
          <internalNodes>
            0 -1 424 2.4813893251121044e-03</internalNodes>
          <leafValues>
            -1.1255420744419098e-01 8.3194673061370850e-01</leafValues></_>
        <_>
          <internalNodes>
            0 -1 348 -1.8652749713510275e-03</internalNodes>
          <leafValues>
            6.4521569013595581e-01 -1.4053393900394440e-01</leafValues></_>
        <_>
          <internalNodes>
            0 -1 550 -1.1419120710343122e-03</internalNodes>
          <leafValues>
            6.9055926799774170e-01 -7.0990830659866333e-02</leafValues></_>
        <_>
          <internalNodes>
            0 -1 552 6.6588347544893622e-04</internalNodes>
          <leafValues>
            -1.4152461290359497e-01 5.8940845727920532e-01</leafValues></_>
        <_>
          <internalNodes>
            0 -1 102 -9.2097297310829163e-02</internalNodes>
          <leafValues>
            4.6691703796386719e-01 -1.8565872311592102e-01</leafValues></_>
        <_>
          <internalNodes>
            0 -1 66 -8.8646858930587769e-03</internalNodes>
          <leafValues>
            6.8344008922576904e-01 -1.0611926764249802e-01</leafValues></_>
        <_>
          <internalNodes>
            0 -1 223 5.6119360961019993e-03</internalNodes>
          <leafValues>
            -1.3391171395778656e-01 7.0563519001007080e-01</leafValues></_>
        <_>
          <internalNodes>
            0 -1 152 -7.3344088159501553e-03</internalNodes>
          <leafValues>
            5.7603520154953003e-01 -1.2227924168109894e-01</leafValues></_>
        <_>
          <internalNodes>
            0 -1 41 -1.4191765512805432e-04</internalNodes>
          <leafValues>
            2.1492420136928558e-01 -4.2865613102912903e-01</leafValues></_>
        <_>
          <internalNodes>
            0 -1 34 -5.7891167700290680e-02</internalNodes>
          <leafValues>
            8.0525952577590942e-01 -1.0410895198583603e-01</leafValues></_>
        <_>
          <internalNodes>
            0 -1 126 9.0859262272715569e-03</internalNodes>
          <leafValues>
            -8.8856562972068787e-02 8.1279611587524414e-01</leafValues></_>
        <_>
          <internalNodes>
            0 -1 392 -6.4269185531884432e-04</internalNodes>
          <leafValues>
            -4.6524396538734436e-01 1.9860848784446716e-01</leafValues></_>
        <_>
          <internalNodes>
            0 -1 32 -6.0710846446454525e-04</internalNodes>
          <leafValues>
            6.7620891332626343e-01 -1.2771514058113098e-01</leafValues></_>
        <_>
          <internalNodes>
            0 -1 343 -5.3836626466363668e-04</internalNodes>
          <leafValues>
            -5.4572755098342896e-01 1.4804834127426147e-01</leafValues></_></weakClassifiers></_>
    <!-- stage 3 -->
    <_>
      <maxWeakCount>21</maxWeakCount>
      <stageThreshold>-9.9949526786804199e-01</stageThreshold>
      <weakClassifiers>
        <_>
          <internalNodes>
            0 -1 427 -2.8135530650615692e-02</internalNodes>
          <leafValues>
            7.6097559928894043e-01 9.5919445157051086e-02</leafValues></_>
        <_>
          <internalNodes>
            0 -1 64 -6.7231040447950363e-03</internalNodes>
          <leafValues>
            5.6789338588714600e-01 -1.7290632426738739e-01</leafValues></_>
        <_>
          <internalNodes>
            0 -1 276 9.1551820514723659e-04</internalNodes>
          <leafValues>
            1.7120878398418427e-01 -6.7918324470520020e-01</leafValues></_>
        <_>
          <internalNodes>
            0 -1 154 4.5373319881036878e-04</internalNodes>
          <leafValues>
            -3.1445589661598206e-01 3.4973481297492981e-01</leafValues></_>
        <_>
          <internalNodes>
            0 -1 16 -4.2389303445816040e-02</internalNodes>
          <leafValues>
            4.2230680584907532e-01 -2.4256475269794464e-01</leafValues></_>
        <_>
          <internalNodes>
            0 -1 196 -1.9636072218418121e-01</internalNodes>
          <leafValues>
            4.4312882423400879e-01 -2.3062595725059509e-01</leafValues></_>
        <_>
          <internalNodes>
            0 -1 573 2.6233219541609287e-03</internalNodes>
          <leafValues>
            -1.7578415572643280e-01 4.8763945698738098e-01</leafValues></_>
        <_>
          <internalNodes>
            0 -1 280 -7.4338994454592466e-04</internalNodes>
          <leafValues>
            -6.2139064073562622e-01 1.3432528078556061e-01</leafValues></_>
        <_>
          <internalNodes>
            0 -1 248 -4.4581480324268341e-03</internalNodes>
          <leafValues>
            5.0101095438003540e-01 -1.3842058181762695e-01</leafValues></_>
        <_>
          <internalNodes>
            0 -1 581 -1.8208103720098734e-03</internalNodes>
          <leafValues>
            4.1362956166267395e-01 -1.7187663912773132e-01</leafValues></_>
        <_>
          <internalNodes>
            0 -1 37 5.4656178690493107e-03</internalNodes>
          <leafValues>
            1.6018073260784149e-01 -4.6586659550666809e-01</leafValues></_>
        <_>
          <internalNodes>
            0 -1 472 -1.1125542223453522e-02</internalNodes>
          <leafValues>
            5.0501585006713867e-01 -1.6697271168231964e-01</leafValues></_>
        <_>
          <internalNodes>
            0 -1 236 -8.9972522109746933e-03</internalNodes>
          <leafValues>
            3.2052278518676758e-01 -2.2285026311874390e-01</leafValues></_>
        <_>
          <internalNodes>
            0 -1 249 4.6689370647072792e-03</internalNodes>
          <leafValues>
            -1.4075778424739838e-01 5.4913944005966187e-01</leafValues></_>
        <_>
          <internalNodes>
            0 -1 413 -5.2305333316326141e-02</internalNodes>
          <leafValues>
            5.3851598501205444e-01 -1.2420725822448730e-01</leafValues></_>
        <_>
          <internalNodes>
            0 -1 345 5.7695631403476000e-04</internalNodes>
          <leafValues>
            1.1599933356046677e-01 -6.3502252101898193e-01</leafValues></_>
        <_>
          <internalNodes>
            0 -1 297 -8.9080333709716797e-03</internalNodes>
          <leafValues>
            2.1715852618217468e-01 -2.7441915869712830e-01</leafValues></_>
        <_>
          <internalNodes>
            0 -1 577 -7.5330695835873485e-05</internalNodes>
          <leafValues>
            -4.1839262843132019e-01 1.3883645832538605e-01</leafValues></_>
        <_>
          <internalNodes>
            0 -1 452 6.7512504756450653e-03</internalNodes>
          <leafValues>
            1.1274920403957367e-01 -4.9300941824913025e-01</leafValues></_>
        <_>
          <internalNodes>
            0 -1 519 -1.6723569715395570e-03</internalNodes>
          <leafValues>
            3.7537714838981628e-01 -1.6508361697196960e-01</leafValues></_>
        <_>
          <internalNodes>
            0 -1 486 4.3605919927358627e-03</internalNodes>
          <leafValues>
            -1.4133714139461517e-01 4.1989195346832275e-01</leafValues></_></weakClassifiers></_>
    <!-- stage 4 -->
    <_>
      <maxWeakCount>15</maxWeakCount>
      <stageThreshold>-8.3938419818878174e-01</stageThreshold>
      <weakClassifiers>
        <_>
          <internalNodes>
            0 -1 367 -2.7838436653837562e-04</internalNodes>
          <leafValues>
            -5.4010695219039917e-01 4.8086038231849670e-01</leafValues></_>
        <_>
          <internalNodes>
            0 -1 30 -2.2705409675836563e-02</internalNodes>
          <leafValues>
            6.9587993621826172e-01 -1.9562925398349762e-01</leafValues></_>
        <_>
          <internalNodes>
            0 -1 460 3.0482159927487373e-03</internalNodes>
          <leafValues>
            -3.1010100245475769e-01 4.1033101081848145e-01</leafValues></_>
        <_>
          <internalNodes>
            0 -1 332 3.9920277777127922e-04</internalNodes>
          <leafValues>
            1.1278564482927322e-01 -7.6922792196273804e-01</leafValues></_>
        <_>
          <internalNodes>
            0 -1 232 -2.2463615983724594e-02</internalNodes>
          <leafValues>
            3.9606264233589172e-01 -2.5669303536415100e-01</leafValues></_>
        <_>
          <internalNodes>
            0 -1 612 -8.7052962044253945e-05</internalNodes>
          <leafValues>
            -5.9373223781585693e-01 1.7043782770633698e-01</leafValues></_>
        <_>
          <internalNodes>
            0 -1 569 7.5485864654183388e-03</internalNodes>
          <leafValues>
            -1.3533791899681091e-01 6.7023956775665283e-01</leafValues></_>
        <_>
          <internalNodes>
            0 -1 462 3.4923420753329992e-04</internalNodes>
          <leafValues>
            1.7141287028789520e-01 -5.7442104816436768e-01</leafValues></_>
        <_>
          <internalNodes>
            0 -1 82 -1.7250986275030300e-05</internalNodes>
          <leafValues>
            2.3384173214435577e-01 -3.7535783648490906e-01</leafValues></_>
        <_>
          <internalNodes>
            0 -1 117 -1.9083876162767410e-02</internalNodes>
          <leafValues>
            4.7342941164970398e-01 -1.9014349579811096e-01</leafValues></_>
        <_>
          <internalNodes>
            0 -1 256 2.8319435659796000e-04</internalNodes>
          <leafValues>
            1.5757168829441071e-01 -5.2582007646560669e-01</leafValues></_>
        <_>
          <internalNodes>
            0 -1 580 -5.1413951441645622e-03</internalNodes>
          <leafValues>
            7.5373512506484985e-01 -1.1681544035673141e-01</leafValues></_>
        <_>
          <internalNodes>
            0 -1 123 -5.8853011578321457e-03</internalNodes>
          <leafValues>
            5.2219802141189575e-01 -1.4759556949138641e-01</leafValues></_>
        <_>
          <internalNodes>
            0 -1 6 1.5276469290256500e-02</internalNodes>
          <leafValues>
            -1.2632046639919281e-01 5.7057601213455200e-01</leafValues></_>
        <_>
          <internalNodes>
            0 -1 274 -4.5505852904170752e-04</internalNodes>
          <leafValues>
            -7.4901258945465088e-01 1.0191382467746735e-01</leafValues></_></weakClassifiers></_>
    <!-- stage 5 -->
    <_>
      <maxWeakCount>25</maxWeakCount>
      <stageThreshold>-9.1150057315826416e-01</stageThreshold>
      <weakClassifiers>
        <_>
          <internalNodes>
            0 -1 540 1.9140522927045822e-03</internalNodes>
          <leafValues>
            -6.3875089399516582e-03 6.5925055742263794e-01</leafValues></_>
        <_>
          <internalNodes>
            0 -1 57 -4.5471359044313431e-03</internalNodes>
          <leafValues>
            6.2751162052154541e-01 -1.7002630233764648e-01</leafValues></_>
        <_>
          <internalNodes>
            0 -1 595 7.2332386480411515e-06</internalNodes>
          <leafValues>
            -3.1542524695396423e-01 3.1784084439277649e-01</leafValues></_>
        <_>
          <internalNodes>
            0 -1 468 -2.8690558974631131e-04</internalNodes>
          <leafValues>
            -5.1252120733261108e-01 1.2452314794063568e-01</leafValues></_>
        <_>
          <internalNodes>
            0 -1 21 -4.1974671185016632e-02</internalNodes>
          <leafValues>
            5.4570043087005615e-01 -1.4429000020027161e-01</leafValues></_>
        <_>
          <internalNodes>
            0 -1 488 -2.0676115527749062e-02</internalNodes>
          <leafValues>
            1.5562328696250916e-01 -4.8833942413330078e-01</leafValues></_>
        <_>
          <internalNodes>
            0 -1 465 -4.0979683399200439e-03</internalNodes>
          <leafValues>
            2.3150825500488281e-01 -3.4186670184135437e-01</leafValues></_>
        <_>
          <internalNodes>
            0 -1 31 7.1269730105996132e-03</internalNodes>
          <leafValues>
            -1.0742227733135223e-01 6.4179956912994385e-01</leafValues></_>
        <_>
          <internalNodes>
            0 -1 512 -3.1222160905599594e-03</internalNodes>
          <leafValues>
            4.3320158123970032e-01 -1.3172344863414764e-01</leafValues></_>
        <_>
          <internalNodes>
            0 -1 432 -6.3235717825591564e-03</internalNodes>
          <leafValues>
            3.1247806549072266e-01 -2.0347662270069122e-01</leafValues></_>
        <_>
          <internalNodes>
            0 -1 449 -4.4444273225963116e-04</internalNodes>
          <leafValues>
            -5.8605295419692993e-01 1.2537820637226105e-01</leafValues></_>
        <_>
          <internalNodes>
            0 -1 212 -3.4495731815695763e-03</internalNodes>
          <leafValues>
            4.3185916543006897e-01 -1.6633759438991547e-01</leafValues></_>
        <_>
          <internalNodes>
            0 -1 213 3.6508147604763508e-03</internalNodes>
          <leafValues>
            -1.4594976603984833e-01 4.6396565437316895e-01</leafValues></_>
        <_>
          <internalNodes>
            0 -1 358 9.4519078265875578e-04</internalNodes>
          <leafValues>
            1.4175063371658325e-01 -4.9961537122726440e-01</leafValues></_>
        <_>
          <internalNodes>
            0 -1 566 -1.1212590616196394e-03</internalNodes>
          <leafValues>
            3.9758116006851196e-01 -1.7421582341194153e-01</leafValues></_>
        <_>
          <internalNodes>
            0 -1 233 -1.1827344074845314e-02</internalNodes>
          <leafValues>
            6.7007994651794434e-01 -6.5825633704662323e-02</leafValues></_>
        <_>
          <internalNodes>
            0 -1 505 -5.9778774157166481e-03</internalNodes>
          <leafValues>
            4.3150785565376282e-01 -1.1226028949022293e-01</leafValues></_>
        <_>
          <internalNodes>
            0 -1 475 -4.1491878218948841e-03</internalNodes>
          <leafValues>
            5.6237143278121948e-01 -1.0922452807426453e-01</leafValues></_>
        <_>
          <internalNodes>
            0 -1 12 5.7281586341559887e-03</internalNodes>
          <leafValues>
            -2.8068733215332031e-01 2.1832023561000824e-01</leafValues></_>
        <_>
          <internalNodes>
            0 -1 98 -1.1271011084318161e-02</internalNodes>
          <leafValues>
            5.0757032632827759e-01 -9.9439345300197601e-02</leafValues></_>
        <_>
          <internalNodes>
            0 -1 220 -2.6481151580810547e-02</internalNodes>
          <leafValues>
            2.2494375705718994e-01 -2.3701412975788116e-01</leafValues></_>
        <_>
          <internalNodes>
            0 -1 29 -1.7748799175024033e-02</internalNodes>
          <leafValues>
            2.8283923864364624e-01 -1.9897952675819397e-01</leafValues></_>
        <_>
          <internalNodes>
            0 -1 115 -1.8949126824736595e-02</internalNodes>
          <leafValues>
            -6.9643634557723999e-01 7.8850015997886658e-02</leafValues></_>
        <_>
          <internalNodes>
            0 -1 245 -9.7550805658102036e-03</internalNodes>
          <leafValues>
            8.2852184772491455e-01 -8.7637819349765778e-02</leafValues></_>
        <_>
          <internalNodes>
            0 -1 259 -1.7692469060420990e-02</internalNodes>
          <leafValues>
            -6.8070769309997559e-01 9.8139375448226929e-02</leafValues></_></weakClassifiers></_>
    <!-- stage 6 -->
    <_>
      <maxWeakCount>31</maxWeakCount>
      <stageThreshold>-9.2427909374237061e-01</stageThreshold>
      <weakClassifiers>
        <_>
          <internalNodes>
            0 -1 62 -3.2438994385302067e-03</internalNodes>
          <leafValues>
            7.4275982379913330e-01 1.2609367072582245e-01</leafValues></_>
        <_>
          <internalNodes>
            0 -1 528 8.1200748682022095e-03</internalNodes>
          <leafValues>
            -1.9762496650218964e-01 4.9344846606254578e-01</leafValues></_>
        <_>
          <internalNodes>
            0 -1 270 -7.1207676082849503e-03</internalNodes>
          <leafValues>
            3.8035288453102112e-01 -1.9863912463188171e-01</leafValues></_>
        <_>
          <internalNodes>
            0 -1 471 -1.3163570314645767e-02</internalNodes>
          <leafValues>
            1.0499317944049835e-01 -5.7925617694854736e-01</leafValues></_>
        <_>
          <internalNodes>
            0 -1 33 -2.4152740836143494e-02</internalNodes>
          <leafValues>
            4.1385251283645630e-01 -1.9268848001956940e-01</leafValues></_>
        <_>
          <internalNodes>
            0 -1 310 -2.0739335566759109e-02</internalNodes>
          <leafValues>
            3.9656773209571838e-01 -1.5730242431163788e-01</leafValues></_>
        <_>
          <internalNodes>
            0 -1 142 -2.2756433114409447e-02</internalNodes>
          <leafValues>
            4.4938638806343079e-01 -1.2978923320770264e-01</leafValues></_>
        <_>
          <internalNodes>
            0 -1 504 9.0731200543814339e-06</internalNodes>
          <leafValues>
            -4.0950161218643188e-01 1.7393967509269714e-01</leafValues></_>
        <_>
          <internalNodes>
            0 -1 273 9.6516210760455579e-05</internalNodes>
          <leafValues>
            9.1257445514202118e-02 -5.8226996660232544e-01</leafValues></_>
        <_>
          <internalNodes>
            0 -1 130 3.9724977687001228e-03</internalNodes>
          <leafValues>
            -1.2613044679164886e-01 4.5950314402580261e-01</leafValues></_>
        <_>
          <internalNodes>
            0 -1 390 -1.4854024630039930e-04</internalNodes>
          <leafValues>
            -6.2591665983200073e-01 8.8363319635391235e-02</leafValues></_>
        <_>
          <internalNodes>
            0 -1 591 -1.1938700918108225e-03</internalNodes>
          <leafValues>
            4.7496414184570313e-01 -1.2356865406036377e-01</leafValues></_>
        <_>
          <internalNodes>
            0 -1 476 -3.5673286765813828e-03</internalNodes>
          <leafValues>
            3.6202844977378845e-01 -1.2820796668529510e-01</leafValues></_>
        <_>
          <internalNodes>
            0 -1 443 -2.1517487766686827e-04</internalNodes>
          <leafValues>
            -5.1484817266464233e-01 9.6806511282920837e-02</leafValues></_>
        <_>
          <internalNodes>
            0 -1 466 1.0343586327508092e-03</internalNodes>
          <leafValues>
            -2.2370737791061401e-01 2.3601786792278290e-01</leafValues></_>
        <_>
          <internalNodes>
            0 -1 177 -2.7120903134346008e-02</internalNodes>
          <leafValues>
            -4.1481295228004456e-01 1.1968175321817398e-01</leafValues></_>
        <_>
          <internalNodes>
            0 -1 496 1.9841236062347889e-03</internalNodes>
          <leafValues>
            -1.4919871091842651e-01 3.5939383506774902e-01</leafValues></_>
        <_>
          <internalNodes>
            0 -1 39 -3.8197413086891174e-03</internalNodes>
          <leafValues>
            6.3641029596328735e-01 -7.3158986866474152e-02</leafValues></_>
        <_>
          <internalNodes>
            0 -1 366 1.7349838162772357e-04</internalNodes>
          <leafValues>
            8.2661651074886322e-02 -6.2149846553802490e-01</leafValues></_>
        <_>
          <internalNodes>
            0 -1 531 -3.8624536246061325e-03</internalNodes>
          <leafValues>
            3.7937968969345093e-01 -1.3229255378246307e-01</leafValues></_>
        <_>
          <internalNodes>
            0 -1 534 2.3470490705221891e-03</internalNodes>
          <leafValues>
            -1.0941222310066223e-01 4.4941884279251099e-01</leafValues></_>
        <_>
          <internalNodes>
            0 -1 290 -4.3834283133037388e-04</internalNodes>
          <leafValues>
            -4.1186392307281494e-01 1.3340930640697479e-01</leafValues></_>
        <_>
          <internalNodes>
            0 -1 362 -7.0513685932382941e-04</internalNodes>
          <leafValues>
            2.8146043419837952e-01 -1.7154906690120697e-01</leafValues></_>
        <_>
          <internalNodes>
            0 -1 323 -9.5393054652959108e-04</internalNodes>
          <leafValues>
            3.1237888336181641e-01 -2.0078502595424652e-01</leafValues></_>
        <_>
          <internalNodes>
            0 -1 588 1.0727558284997940e-02</internalNodes>
          <leafValues>
            6.8647079169750214e-02 -6.9327056407928467e-01</leafValues></_>
        <_>
          <internalNodes>
            0 -1 577 -1.5476575936190784e-04</internalNodes>
          <leafValues>
            -4.7363901138305664e-01 8.7955370545387268e-02</leafValues></_>
        <_>
          <internalNodes>
            0 -1 141 -1.0076325386762619e-02</internalNodes>
          <leafValues>
            3.9705142378807068e-01 -1.2048417329788208e-01</leafValues></_>
        <_>
          <internalNodes>
            0 -1 443 1.4944761642254889e-04</internalNodes>
          <leafValues>
            1.2014821916818619e-01 -4.3833670020103455e-01</leafValues></_>
        <_>
          <internalNodes>
            0 -1 370 -5.3420057520270348e-03</internalNodes>
          <leafValues>
            6.3836002349853516e-01 -8.5847623646259308e-02</leafValues></_>
        <_>
          <internalNodes>
            0 -1 215 6.4468225464224815e-03</internalNodes>
          <leafValues>
            -8.4159485995769501e-02 5.4439705610275269e-01</leafValues></_>
        <_>
          <internalNodes>
            0 -1 502 6.8465559743344784e-03</internalNodes>
          <leafValues>
            -9.0173020958900452e-02 4.5274144411087036e-01</leafValues></_></weakClassifiers></_>
    <!-- stage 7 -->
    <_>
      <maxWeakCount>33</maxWeakCount>
      <stageThreshold>-8.7096554040908813e-01</stageThreshold>
      <weakClassifiers>
        <_>
          <internalNodes>
            0 -1 251 -3.1555755995213985e-03</internalNodes>
          <leafValues>
            5.3653848171234131e-01 9.6432014834135771e-04</leafValues></_>
        <_>
          <internalNodes>
            0 -1 20 -2.6387505233287811e-02</internalNodes>
          <leafValues>
            7.2356098890304565e-01 -7.8487195074558258e-02</leafValues></_>
        <_>
          <internalNodes>
            0 -1 308 -2.1460771560668945e-02</internalNodes>
          <leafValues>
            2.9718992114067078e-01 -2.3165281116962433e-01</leafValues></_>
        <_>
          <internalNodes>
            0 -1 94 1.3710845960304141e-03</internalNodes>
          <leafValues>
            1.0630298405885696e-01 -5.4092901945114136e-01</leafValues></_>
        <_>
          <internalNodes>
            0 -1 181 -4.2055189609527588e-02</internalNodes>
          <leafValues>
            2.1312561631202698e-01 -2.6059761643409729e-01</leafValues></_>
        <_>
          <internalNodes>
            0 -1 483 -9.5642833039164543e-03</internalNodes>
          <leafValues>
            4.2114004492759705e-01 -1.2893791496753693e-01</leafValues></_>
        <_>
          <internalNodes>
            0 -1 305 3.8051104638725519e-04</internalNodes>
          <leafValues>
            1.0661903768777847e-01 -4.9332872033119202e-01</leafValues></_>
        <_>
          <internalNodes>
            0 -1 457 -6.3242367468774319e-03</internalNodes>
          <leafValues>
            2.9295518994331360e-01 -2.0808051526546478e-01</leafValues></_>
        <_>
          <internalNodes>
            0 -1 229 6.7402154672890902e-04</internalNodes>
          <leafValues>
            -1.9322355091571808e-01 2.8515356779098511e-01</leafValues></_>
        <_>
          <internalNodes>
            0 -1 397 -1.0488800704479218e-01</internalNodes>
          <leafValues>
            1.6988576948642731e-01 -3.2169485092163086e-01</leafValues></_>
        <_>
          <internalNodes>
            0 -1 530 -1.7469313461333513e-03</internalNodes>
          <leafValues>
            4.4316849112510681e-01 -1.2987950444221497e-01</leafValues></_>
        <_>
          <internalNodes>
            0 -1 247 -1.9900437444448471e-02</internalNodes>
          <leafValues>
            4.5855498313903809e-01 -1.0670363903045654e-01</leafValues></_>
        <_>
          <internalNodes>
            0 -1 111 -5.8866873383522034e-02</internalNodes>
          <leafValues>
            -6.2778300046920776e-01 9.3697369098663330e-02</leafValues></_>
        <_>
          <internalNodes>
            0 -1 104 -8.5115386173129082e-03</internalNodes>
          <leafValues>
            2.8778916597366333e-01 -1.7556689679622650e-01</leafValues></_>
        <_>
          <internalNodes>
            0 -1 26 -2.1442729979753494e-02</internalNodes>
          <leafValues>
            4.2283651232719421e-01 -1.1745689809322357e-01</leafValues></_>
        <_>
          <internalNodes>
            0 -1 518 4.6715280041098595e-04</internalNodes>
          <leafValues>
            -9.0935006737709045e-02 4.8524111509323120e-01</leafValues></_>
        <_>
          <internalNodes>
            0 -1 250 -1.1330192908644676e-02</internalNodes>
          <leafValues>
            4.6709579229354858e-01 -9.6677735447883606e-02</leafValues></_>
        <_>
          <internalNodes>
            0 -1 480 -7.6189561514183879e-04</internalNodes>
          <leafValues>
            -5.7708489894866943e-01 8.9601017534732819e-02</leafValues></_>
        <_>
          <internalNodes>
            0 -1 143 -1.1350277811288834e-02</internalNodes>
          <leafValues>
            5.8837276697158813e-01 -8.6179673671722412e-02</leafValues></_>
        <_>
          <internalNodes>
            0 -1 609 5.3257308900356293e-03</internalNodes>
          <leafValues>
            7.8459240496158600e-02 -6.5114736557006836e-01</leafValues></_>
        <_>
          <internalNodes>
            0 -1 386 3.9654560387134552e-03</internalNodes>
          <leafValues>
            -1.7177534103393555e-01 2.8914669156074524e-01</leafValues></_>
        <_>
          <internalNodes>
            0 -1 346 2.7596188010647893e-04</internalNodes>
          <leafValues>
            1.2712632119655609e-01 -3.8793775439262390e-01</leafValues></_>
        <_>
          <internalNodes>
            0 -1 430 -1.9008763134479523e-02</internalNodes>
          <leafValues>
            2.7681535482406616e-01 -1.6657316684722900e-01</leafValues></_>
        <_>
          <internalNodes>
            0 -1 4 1.1744523420929909e-02</internalNodes>
          <leafValues>
            -8.9518792927265167e-02 5.5194562673568726e-01</leafValues></_>
        <_>
          <internalNodes>
            0 -1 523 -5.1074828952550888e-03</internalNodes>
          <leafValues>
            3.2840010523796082e-01 -1.4274463057518005e-01</leafValues></_>
        <_>
          <internalNodes>
            0 -1 398 -1.6580380906816572e-04</internalNodes>
          <leafValues>
            -4.8541751503944397e-01 1.0353546589612961e-01</leafValues></_>
        <_>
          <internalNodes>
            0 -1 237 6.1638243496417999e-03</internalNodes>
          <leafValues>
            -1.0713251680135727e-01 5.2580988407135010e-01</leafValues></_>
        <_>
          <internalNodes>
            0 -1 382 3.4809802309609950e-04</internalNodes>
          <leafValues>
            1.0512053966522217e-01 -4.9932745099067688e-01</leafValues></_>
        <_>
          <internalNodes>
            0 -1 122 -2.5219025555998087e-03</internalNodes>
          <leafValues>
            3.8965222239494324e-01 -1.4997740089893341e-01</leafValues></_>
        <_>
          <internalNodes>
            0 -1 175 1.6998710343614221e-03</internalNodes>
          <leafValues>
            -1.3018198311328888e-01 3.5858246684074402e-01</leafValues></_>
        <_>
          <internalNodes>
            0 -1 383 -1.0991057934006676e-04</internalNodes>
          <leafValues>
            -4.4475060701370239e-01 1.0516314208507538e-01</leafValues></_>
        <_>
          <internalNodes>
            0 -1 539 1.4427884016185999e-03</internalNodes>
          <leafValues>
            -1.9503450393676758e-01 2.3122733831405640e-01</leafValues></_>
        <_>
          <internalNodes>
            0 -1 500 -7.2332386480411515e-06</internalNodes>
          <leafValues>
            2.0329372584819794e-01 -2.3766618967056274e-01</leafValues></_></weakClassifiers></_>
    <!-- stage 8 -->
    <_>
      <maxWeakCount>32</maxWeakCount>
      <stageThreshold>-8.3269751071929932e-01</stageThreshold>
      <weakClassifiers>
        <_>
          <internalNodes>
            0 -1 59 -4.7704400494694710e-03</internalNodes>
          <leafValues>
            6.9299024343490601e-01 1.6884422302246094e-01</leafValues></_>
        <_>
          <internalNodes>
            0 -1 410 7.3319871444255114e-04</internalNodes>
          <leafValues>
            1.4182260632514954e-01 -6.8216186761856079e-01</leafValues></_>
        <_>
          <internalNodes>
            0 -1 536 4.6375961974263191e-03</internalNodes>
          <leafValues>
            -2.1780475974082947e-01 3.0105623602867126e-01</leafValues></_>
        <_>
          <internalNodes>
            0 -1 599 -1.1331533081829548e-02</internalNodes>
          <leafValues>
            -5.0563448667526245e-01 1.2861162424087524e-01</leafValues></_>
        <_>
          <internalNodes>
            0 -1 421 -2.7719920035451651e-04</internalNodes>
          <leafValues>
            -6.5083980560302734e-01 3.2374348491430283e-02</leafValues></_>
        <_>
          <internalNodes>
            0 -1 50 -6.9857854396104813e-03</internalNodes>
          <leafValues>
            2.8469395637512207e-01 -1.9922386109828949e-01</leafValues></_>
        <_>
          <internalNodes>
            0 -1 5 -1.4697663486003876e-01</internalNodes>
          <leafValues>
            1.2952028214931488e-01 -4.4963809847831726e-01</leafValues></_>
        <_>
          <internalNodes>
            0 -1 184 -3.7437127903103828e-03</internalNodes>
          <leafValues>
            4.7032022476196289e-01 -1.2725056707859039e-01</leafValues></_>
        <_>
          <internalNodes>
            0 -1 171 8.3871996030211449e-03</internalNodes>
          <leafValues>
            -9.7327180206775665e-02 6.8160218000411987e-01</leafValues></_>
        <_>
          <internalNodes>
            0 -1 555 3.2168276607990265e-02</internalNodes>
          <leafValues>
            8.8473282754421234e-02 -6.3475704193115234e-01</leafValues></_>
        <_>
          <internalNodes>
            0 -1 132 -4.8829121515154839e-03</internalNodes>
          <leafValues>
            2.6259294152259827e-01 -1.9255295395851135e-01</leafValues></_>
        <_>
          <internalNodes>
            0 -1 579 -2.1441336721181870e-03</internalNodes>
          <leafValues>
            3.5791859030723572e-01 -1.4529605209827423e-01</leafValues></_>
        <_>
          <internalNodes>
            0 -1 299 -6.6474080085754395e-04</internalNodes>
          <leafValues>
            2.7288952469825745e-01 -1.9388757646083832e-01</leafValues></_>
        <_>
          <internalNodes>
            0 -1 91 -5.7096185628324747e-04</internalNodes>
          <leafValues>
            1.3859142363071442e-01 -3.7638300657272339e-01</leafValues></_>
        <_>
          <internalNodes>
            0 -1 482 -5.3167934529483318e-03</internalNodes>
          <leafValues>
            3.8792285323143005e-01 -1.3496597111225128e-01</leafValues></_>
        <_>
          <internalNodes>
            0 -1 116 5.8596404269337654e-03</internalNodes>
          <leafValues>
            -9.4149380922317505e-02 5.1415449380874634e-01</leafValues></_>
        <_>
          <internalNodes>
            0 -1 585 6.2277796678245068e-04</internalNodes>
          <leafValues>
            -1.1650232225656509e-01 3.9541333913803101e-01</leafValues></_>
        <_>
          <internalNodes>
            0 -1 304 -7.0342305116355419e-04</internalNodes>
          <leafValues>
            -5.3951215744018555e-01 9.8898231983184814e-02</leafValues></_>
        <_>
          <internalNodes>
            0 -1 339 -7.1777226403355598e-03</internalNodes>
          <leafValues>
            1.9919055700302124e-01 -2.5762894749641418e-01</leafValues></_>
        <_>
          <internalNodes>
            0 -1 378 8.9677009964361787e-04</internalNodes>
          <leafValues>
            1.5308737754821777e-01 -3.1188529729843140e-01</leafValues></_>
        <_>
          <internalNodes>
            0 -1 101 3.9518987759947777e-03</internalNodes>
          <leafValues>
            -1.3732166588306427e-01 3.6868610978126526e-01</leafValues></_>
        <_>
          <internalNodes>
            0 -1 7 -2.5633059442043304e-02</internalNodes>
          <leafValues>
            -4.0339574217796326e-01 1.1516953259706497e-01</leafValues></_>
        <_>
          <internalNodes>
            0 -1 565 -1.5887746121734381e-04</internalNodes>
          <leafValues>
            2.1048150956630707e-01 -2.0821076631546021e-01</leafValues></_>
        <_>
          <internalNodes>
            0 -1 89 -3.3733429154381156e-04</internalNodes>
          <leafValues>
            -4.6503388881683350e-01 9.7752049565315247e-02</leafValues></_>
        <_>
          <internalNodes>
            0 -1 144 6.0487892478704453e-03</internalNodes>
          <leafValues>
            -1.0210882127285004e-01 4.9363157153129578e-01</leafValues></_>
        <_>
          <internalNodes>
            0 -1 336 -3.4150723367929459e-03</internalNodes>
          <leafValues>
            1.7422196269035339e-01 -2.5962778925895691e-01</leafValues></_>
        <_>
          <internalNodes>
            0 -1 380 -5.6972890160977840e-04</internalNodes>
          <leafValues>
            2.7194988727569580e-01 -1.6770854592323303e-01</leafValues></_>
        <_>
          <internalNodes>
            0 -1 586 -2.7331532910466194e-03</internalNodes>
          <leafValues>
            5.8848589658737183e-01 -7.7433489263057709e-02</leafValues></_>
        <_>
          <internalNodes>
            0 -1 365 2.5642709806561470e-04</internalNodes>
          <leafValues>
            1.0844693332910538e-01 -4.6393090486526489e-01</leafValues></_>
        <_>
          <internalNodes>
            0 -1 313 8.4120463579893112e-03</internalNodes>
          <leafValues>
            6.4623937010765076e-02 -6.2903225421905518e-01</leafValues></_>
        <_>
          <internalNodes>
            0 -1 161 -3.5635985434055328e-02</internalNodes>
          <leafValues>
            4.7167459130287170e-01 -1.0646019130945206e-01</leafValues></_>
        <_>
          <internalNodes>
            0 -1 0 -7.2479690425097942e-03</internalNodes>
          <leafValues>
            5.8881187438964844e-01 -6.8823814392089844e-02</leafValues></_></weakClassifiers></_>
    <!-- stage 9 -->
    <_>
      <maxWeakCount>35</maxWeakCount>
      <stageThreshold>-8.0205380916595459e-01</stageThreshold>
      <weakClassifiers>
        <_>
          <internalNodes>
            0 -1 330 8.0335739767178893e-04</internalNodes>
          <leafValues>
            4.2668518424034119e-01 -4.6443516016006470e-01</leafValues></_>
        <_>
          <internalNodes>
            0 -1 60 -9.1124344617128372e-03</internalNodes>
          <leafValues>
            4.2598760128021240e-01 -1.0822665691375732e-01</leafValues></_>
        <_>
          <internalNodes>
            0 -1 312 -7.7124824747443199e-03</internalNodes>
          <leafValues>
            5.9620559215545654e-01 -1.2862260639667511e-01</leafValues></_>
        <_>
          <internalNodes>
            0 -1 391 4.5142380986362696e-04</internalNodes>
          <leafValues>
            9.9498800933361053e-02 -5.3643852472305298e-01</leafValues></_>
        <_>
          <internalNodes>
            0 -1 27 -9.4091594219207764e-03</internalNodes>
          <leafValues>
            2.7182945609092712e-01 -2.2268433868885040e-01</leafValues></_>
        <_>
          <internalNodes>
            0 -1 593 6.3652801145508420e-06</internalNodes>
          <leafValues>
            -2.6983696222305298e-01 1.9724087417125702e-01</leafValues></_>
        <_>
          <internalNodes>
            0 -1 260 -5.8883065357804298e-03</internalNodes>
          <leafValues>
            4.9190789461135864e-01 -1.3301993906497955e-01</leafValues></_>
        <_>
          <internalNodes>
            0 -1 428 -3.0190832912921906e-02</internalNodes>
          <leafValues>
            2.8136834502220154e-01 -1.6239321231842041e-01</leafValues></_>
        <_>
          <internalNodes>
            0 -1 135 -1.0097008943557739e-01</internalNodes>
          <leafValues>
            1.4475129544734955e-01 -3.7012484669685364e-01</leafValues></_>
        <_>
          <internalNodes>
            0 -1 437 1.9075027666985989e-03</internalNodes>
          <leafValues>
            -1.0286670923233032e-01 5.1455247402191162e-01</leafValues></_>
        <_>
          <internalNodes>
            0 -1 190 4.3196757324039936e-03</internalNodes>
          <leafValues>
            -8.9279688894748688e-02 4.9035772681236267e-01</leafValues></_>
        <_>
          <internalNodes>
            0 -1 72 -9.3698278069496155e-03</internalNodes>
          <leafValues>
            5.9425151348114014e-01 -9.8020397126674652e-02</leafValues></_>
        <_>
          <internalNodes>
            0 -1 205 3.3952458761632442e-04</internalNodes>
          <leafValues>
            1.3267517089843750e-01 -4.1955533623695374e-01</leafValues></_>
        <_>
          <internalNodes>
            0 -1 65 -5.2451714873313904e-02</internalNodes>
          <leafValues>
            -7.2693246603012085e-01 6.5530993044376373e-02</leafValues></_>
        <_>
          <internalNodes>
            0 -1 600 -2.5790115818381310e-02</internalNodes>
          <leafValues>
            -6.3467264175415039e-01 6.5348088741302490e-02</leafValues></_>
        <_>
          <internalNodes>
            0 -1 70 5.3393454290926456e-03</internalNodes>
          <leafValues>
            -1.0100459307432175e-01 4.7632154822349548e-01</leafValues></_>
        <_>
          <internalNodes>
            0 -1 88 -8.1607131505734287e-06</internalNodes>
          <leafValues>
            1.5499198436737061e-01 -2.8018420934677124e-01</leafValues></_>
        <_>
          <internalNodes>
            0 -1 331 -1.0256201494485140e-03</internalNodes>
          <leafValues>
            -4.0771105885505676e-01 1.0433251410722733e-01</leafValues></_>
        <_>
          <internalNodes>
            0 -1 506 -7.2032114258036017e-04</internalNodes>
          <leafValues>
            4.2920160293579102e-01 -1.0715378820896149e-01</leafValues></_>
        <_>
          <internalNodes>
            0 -1 231 2.6907846331596375e-02</internalNodes>
          <leafValues>
            8.3163678646087646e-02 -6.2529915571212769e-01</leafValues></_>
        <_>
          <internalNodes>
            0 -1 507 9.6799631137400866e-04</internalNodes>
          <leafValues>
            -1.1373199522495270e-01 4.5751351118087769e-01</leafValues></_>
        <_>
          <internalNodes>
            0 -1 179 -3.1249169260263443e-03</internalNodes>
          <leafValues>
            3.9453104138374329e-01 -1.0021095722913742e-01</leafValues></_>
        <_>
          <internalNodes>
            0 -1 36 8.6399791762232780e-03</internalNodes>
          <leafValues>
            7.8711912035942078e-02 -6.4961946010589600e-01</leafValues></_>
        <_>
          <internalNodes>
            0 -1 108 -3.2663349993526936e-03</internalNodes>
          <leafValues>
            3.7431806325912476e-01 -1.2323140352964401e-01</leafValues></_>
        <_>
          <internalNodes>
            0 -1 316 -2.3517711088061333e-03</internalNodes>
          <leafValues>
            -3.9596971869468689e-01 1.1926084011793137e-01</leafValues></_>
        <_>
          <internalNodes>
            0 -1 356 1.6932464204728603e-03</internalNodes>
          <leafValues>
            7.4965886771678925e-02 -5.3622841835021973e-01</leafValues></_>
        <_>
          <internalNodes>
            0 -1 613 -3.3577968133613467e-04</internalNodes>
          <leafValues>
            -4.8049399256706238e-01 8.1839866936206818e-02</leafValues></_>
        <_>
          <internalNodes>
            0 -1 602 -7.3118449654430151e-04</internalNodes>
          <leafValues>
            3.7347185611724854e-01 -1.1045688390731812e-01</leafValues></_>
        <_>
          <internalNodes>
            0 -1 614 -1.3815197162330151e-02</internalNodes>
          <leafValues>
            -3.1078124046325684e-01 1.3580374419689178e-01</leafValues></_>
        <_>
          <internalNodes>
            0 -1 487 -6.0845278203487396e-03</internalNodes>
          <leafValues>
            2.9026401042938232e-01 -1.4161235094070435e-01</leafValues></_>
        <_>
          <internalNodes>
            0 -1 485 6.6749760881066322e-03</internalNodes>
          <leafValues>
            -6.8756975233554840e-02 6.0311144590377808e-01</leafValues></_>
        <_>
          <internalNodes>
            0 -1 217 -1.5185141563415527e-01</internalNodes>
          <leafValues>
            2.6512533426284790e-01 -1.5857142210006714e-01</leafValues></_>
        <_>
          <internalNodes>
            0 -1 48 -2.6018310338258743e-02</internalNodes>
          <leafValues>
            3.9550697803497314e-01 -1.1838694661855698e-01</leafValues></_>
        <_>
          <internalNodes>
            0 -1 228 -2.4232556461356580e-04</internalNodes>
          <leafValues>
            -6.8990492820739746e-01 6.7242771387100220e-02</leafValues></_>
        <_>
          <internalNodes>
            0 -1 271 4.8440238460898399e-03</internalNodes>
          <leafValues>
            -9.3636035919189453e-02 5.3003746271133423e-01</leafValues></_></weakClassifiers></_>
    <!-- stage 10 -->
    <_>
      <maxWeakCount>39</maxWeakCount>
      <stageThreshold>-8.8664042949676514e-01</stageThreshold>
      <weakClassifiers>
        <_>
          <internalNodes>
            0 -1 3 -2.1818131208419800e-02</internalNodes>
          <leafValues>
            4.6417444944381714e-01 -1.3661202788352966e-01</leafValues></_>
        <_>
          <internalNodes>
            0 -1 610 7.5784264481626451e-06</internalNodes>
          <leafValues>
            -2.6588505506515503e-01 2.5898894667625427e-01</leafValues></_>
        <_>
          <internalNodes>
            0 -1 415 1.1590983718633652e-02</internalNodes>
          <leafValues>
            -2.0189136266708374e-01 2.9154053330421448e-01</leafValues></_>
        <_>
          <internalNodes>
            0 -1 195 8.3365815225988626e-04</internalNodes>
          <leafValues>
            1.0103426128625870e-01 -5.3503680229187012e-01</leafValues></_>
        <_>
          <internalNodes>
            0 -1 344 4.4788236846216023e-04</internalNodes>
          <leafValues>
            7.7746756374835968e-02 -7.2609680891036987e-01</leafValues></_>
        <_>
          <internalNodes>
            0 -1 300 -1.6476143151521683e-02</internalNodes>
          <leafValues>
            4.1610828042030334e-01 -1.5668945014476776e-01</leafValues></_>
        <_>
          <internalNodes>
            0 -1 582 -4.6467792708426714e-04</internalNodes>
          <leafValues>
            4.0348246693611145e-01 -1.5971404314041138e-01</leafValues></_>
        <_>
          <internalNodes>
            0 -1 87 -7.2463940341549460e-06</internalNodes>
          <leafValues>
            1.9551280140876770e-01 -2.8475219011306763e-01</leafValues></_>
        <_>
          <internalNodes>
            0 -1 282 4.2271753773093224e-03</internalNodes>
          <leafValues>
            1.7657813429832458e-01 -3.1013089418411255e-01</leafValues></_>
        <_>
          <internalNodes>
            0 -1 268 -2.8695850633084774e-03</internalNodes>
          <leafValues>
            3.4210407733917236e-01 -1.6715842485427856e-01</leafValues></_>
        <_>
          <internalNodes>
            0 -1 253 -9.6768169896677136e-04</internalNodes>
          <leafValues>
            -5.7986521720886230e-01 8.7288849055767059e-02</leafValues></_>
        <_>
          <internalNodes>
            0 -1 572 -7.8628794290125370e-04</internalNodes>
          <leafValues>
            3.9526438713073730e-01 -1.3117718696594238e-01</leafValues></_>
        <_>
          <internalNodes>
            0 -1 182 -3.8464250974357128e-03</internalNodes>
          <leafValues>
            4.2345586419105530e-01 -1.2409009039402008e-01</leafValues></_>
        <_>
          <internalNodes>
            0 -1 309 -1.2213619425892830e-02</internalNodes>
          <leafValues>
            3.8672339916229248e-01 -1.1228101700544357e-01</leafValues></_>
        <_>
          <internalNodes>
            0 -1 1 -3.5675305873155594e-02</internalNodes>
          <leafValues>
            4.4088891148567200e-01 -9.3889653682708740e-02</leafValues></_>
        <_>
          <internalNodes>
            0 -1 166 -4.2303418740630150e-03</internalNodes>
          <leafValues>
            4.1872522234916687e-01 -9.9850304424762726e-02</leafValues></_>
        <_>
          <internalNodes>
            0 -1 570 -6.9116945378482342e-03</internalNodes>
          <leafValues>
            -6.2171077728271484e-01 6.5851218998432159e-02</leafValues></_>
        <_>
          <internalNodes>
            0 -1 295 -5.6941583752632141e-03</internalNodes>
          <leafValues>
            2.8089484572410583e-01 -1.9421714544296265e-01</leafValues></_>
        <_>
          <internalNodes>
            0 -1 286 -9.3076899647712708e-03</internalNodes>
          <leafValues>
            -5.2107328176498413e-01 9.1506108641624451e-02</leafValues></_>
        <_>
          <internalNodes>
            0 -1 520 1.0582369577605277e-04</internalNodes>
          <leafValues>
            -1.3902640342712402e-01 3.4892511367797852e-01</leafValues></_>
        <_>
          <internalNodes>
            0 -1 451 -4.2996173724532127e-03</internalNodes>
          <leafValues>
            2.2517563402652740e-01 -2.0290681719779968e-01</leafValues></_>
        <_>
          <internalNodes>
            0 -1 461 -2.1715254115406424e-04</internalNodes>
          <leafValues>
            -5.0480914115905762e-01 9.9795646965503693e-02</leafValues></_>
        <_>
          <internalNodes>
            0 -1 99 -2.8097303584218025e-03</internalNodes>
          <leafValues>
            3.0279365181922913e-01 -1.5355096757411957e-01</leafValues></_>
        <_>
          <internalNodes>
            0 -1 587 -4.3593463487923145e-03</internalNodes>
          <leafValues>
            6.4681607484817505e-01 -6.6394306719303131e-02</leafValues></_>
        <_>
          <internalNodes>
            0 -1 420 9.4654329586774111e-05</internalNodes>
          <leafValues>
            1.0477562993764877e-01 -4.5752733945846558e-01</leafValues></_>
        <_>
          <internalNodes>
            0 -1 100 -1.0911896824836731e-02</internalNodes>
          <leafValues>
            6.8038600683212280e-01 -7.3700830340385437e-02</leafValues></_>
        <_>
          <internalNodes>
            0 -1 372 -1.3291749637573957e-03</internalNodes>
          <leafValues>
            1.1027082800865173e-01 -4.3721121549606323e-01</leafValues></_>
        <_>
          <internalNodes>
            0 -1 563 -6.9529149914160371e-04</internalNodes>
          <leafValues>
            3.4588843584060669e-01 -1.3228160142898560e-01</leafValues></_>
        <_>
          <internalNodes>
            0 -1 559 1.7214105464518070e-03</internalNodes>
          <leafValues>
            -9.9704332649707794e-02 4.4079729914665222e-01</leafValues></_>
        <_>
          <internalNodes>
            0 -1 354 -2.9736543074250221e-03</internalNodes>
          <leafValues>
            -5.3801840543746948e-01 8.5705861449241638e-02</leafValues></_>
        <_>
          <internalNodes>
            0 -1 25 -2.9457099735736847e-03</internalNodes>
          <leafValues>
            4.0351325273513794e-01 -1.0726359486579895e-01</leafValues></_>
        <_>
          <internalNodes>
            0 -1 436 -1.9147628918290138e-02</internalNodes>
          <leafValues>
            3.4467467665672302e-01 -1.1746036261320114e-01</leafValues></_>
        <_>
          <internalNodes>
            0 -1 416 -3.6695068702101707e-03</internalNodes>
          <leafValues>
            2.1906585991382599e-01 -2.1399408578872681e-01</leafValues></_>
        <_>
          <internalNodes>
            0 -1 204 3.6819716915488243e-03</internalNodes>
          <leafValues>
            -1.0432512313127518e-01 4.0332424640655518e-01</leafValues></_>
        <_>
          <internalNodes>
            0 -1 604 -1.2008217163383961e-03</internalNodes>
          <leafValues>
            5.5727648735046387e-01 -6.5248616039752960e-02</leafValues></_>
        <_>
          <internalNodes>
            0 -1 473 -2.9348202049732208e-02</internalNodes>
          <leafValues>
            5.5573791265487671e-01 -6.6225469112396240e-02</leafValues></_>
        <_>
          <internalNodes>
            0 -1 165 1.0264111915603280e-03</internalNodes>
          <leafValues>
            1.0472638159990311e-01 -4.2868703603744507e-01</leafValues></_>
        <_>
          <internalNodes>
            0 -1 163 -2.3489950690418482e-03</internalNodes>
          <leafValues>
            1.7836080491542816e-01 -2.3655471205711365e-01</leafValues></_>
        <_>
          <internalNodes>
            0 -1 109 -1.2784112244844437e-02</internalNodes>
          <leafValues>
            3.3997672796249390e-01 -1.2671242654323578e-01</leafValues></_></weakClassifiers></_>
    <!-- stage 11 -->
    <_>
      <maxWeakCount>41</maxWeakCount>
      <stageThreshold>-8.4083974361419678e-01</stageThreshold>
      <weakClassifiers>
        <_>
          <internalNodes>
            0 -1 67 -1.0812291875481606e-03</internalNodes>
          <leafValues>
            6.1048156023025513e-01 1.4956012368202209e-01</leafValues></_>
        <_>
          <internalNodes>
            0 -1 84 -2.6562239509075880e-04</internalNodes>
          <leafValues>
            2.0120346546173096e-01 -2.7844512462615967e-01</leafValues></_>
        <_>
          <internalNodes>
            0 -1 532 -1.7125341109931469e-03</internalNodes>
          <leafValues>
            3.1053566932678223e-01 -1.6283096373081207e-01</leafValues></_>
        <_>
          <internalNodes>
            0 -1 469 -2.4260059581138194e-04</internalNodes>
          <leafValues>
            -5.1547861099243164e-01 6.1356287449598312e-02</leafValues></_>
        <_>
          <internalNodes>
            0 -1 227 3.5617129469756037e-05</internalNodes>
          <leafValues>
            -2.4003747105598450e-01 2.2743324935436249e-01</leafValues></_>
        <_>
          <internalNodes>
            0 -1 193 7.2278194129467010e-03</internalNodes>
          <leafValues>
            -7.7186435461044312e-02 6.4435487985610962e-01</leafValues></_>
        <_>
          <internalNodes>
            0 -1 337 -6.9735543802380562e-03</internalNodes>
          <leafValues>
            -6.1896568536758423e-01 6.9255612790584564e-02</leafValues></_>
        <_>
          <internalNodes>
            0 -1 542 -2.2757833357900381e-04</internalNodes>
          <leafValues>
            -4.9451291561126709e-01 8.6463883519172668e-02</leafValues></_>
        <_>
          <internalNodes>
            0 -1 377 -1.3470651581883430e-02</internalNodes>
          <leafValues>
            2.7518171072006226e-01 -1.6253761947154999e-01</leafValues></_>
        <_>
          <internalNodes>
            0 -1 19 -2.1643731743097305e-02</internalNodes>
          <leafValues>
            3.1168755888938904e-01 -1.3661630451679230e-01</leafValues></_>
        <_>
          <internalNodes>
            0 -1 199 -1.7892912030220032e-01</internalNodes>
          <leafValues>
            4.4615414738655090e-01 -1.0320505499839783e-01</leafValues></_>
        <_>
          <internalNodes>
            0 -1 187 -7.4817636050283909e-03</internalNodes>
          <leafValues>
            4.7586908936500549e-01 -7.4953734874725342e-02</leafValues></_>
        <_>
          <internalNodes>
            0 -1 8 -3.9285738021135330e-02</internalNodes>
          <leafValues>
            4.8608645796775818e-01 -8.8256187736988068e-02</leafValues></_>
        <_>
          <internalNodes>
            0 -1 280 5.4681999608874321e-04</internalNodes>
          <leafValues>
            8.8929995894432068e-02 -5.4175072908401489e-01</leafValues></_>
        <_>
          <internalNodes>
            0 -1 186 3.6005163565278053e-03</internalNodes>
          <leafValues>
            -1.1608107388019562e-01 4.0322047472000122e-01</leafValues></_>
        <_>
          <internalNodes>
            0 -1 562 -6.5250397892668843e-04</internalNodes>
          <leafValues>
            4.3085634708404541e-01 -9.1227665543556213e-02</leafValues></_>
        <_>
          <internalNodes>
            0 -1 477 -1.7532650381326675e-02</internalNodes>
          <leafValues>
            1.3390932977199554e-01 -3.3705627918243408e-01</leafValues></_>
        <_>
          <internalNodes>
            0 -1 499 -5.6489646434783936e-02</internalNodes>
          <leafValues>
            -7.1670478582382202e-01 6.1067406088113785e-02</leafValues></_>
        <_>
          <internalNodes>
            0 -1 454 -1.2868208810687065e-02</internalNodes>
          <leafValues>
            2.7649465203285217e-01 -1.4561605453491211e-01</leafValues></_>
        <_>
          <internalNodes>
            0 -1 173 -1.8663434311747551e-03</internalNodes>
          <leafValues>
            -4.0310418605804443e-01 1.1154462397098541e-01</leafValues></_>
        <_>
          <internalNodes>
            0 -1 157 -2.8166419360786676e-03</internalNodes>
          <leafValues>
            2.1761763095855713e-01 -1.9683037698268890e-01</leafValues></_>
        <_>
          <internalNodes>
            0 -1 571 -1.0472308844327927e-02</internalNodes>
          <leafValues>
            -5.2330231666564941e-01 6.7091777920722961e-02</leafValues></_>
        <_>
          <internalNodes>
            0 -1 403 4.5662384945899248e-04</internalNodes>
          <leafValues>
            7.7610082924365997e-02 -4.6009200811386108e-01</leafValues></_>
        <_>
          <internalNodes>
            0 -1 591 -5.4589885985478759e-04</internalNodes>
          <leafValues>
            3.0357185006141663e-01 -1.3097150623798370e-01</leafValues></_>
        <_>
          <internalNodes>
            0 -1 145 -2.0563774742186069e-03</internalNodes>
          <leafValues>
            2.8215247392654419e-01 -1.2745428085327148e-01</leafValues></_>
        <_>
          <internalNodes>
            0 -1 423 1.7110604094341397e-03</internalNodes>
          <leafValues>
            8.4092624485492706e-02 -4.5829701423645020e-01</leafValues></_>
        <_>
          <internalNodes>
            0 -1 322 -1.6041441122069955e-03</internalNodes>
          <leafValues>
            -2.8839853405952454e-01 1.3140614330768585e-01</leafValues></_>
        <_>
          <internalNodes>
            0 -1 239 -2.7538474649190903e-02</internalNodes>
          <leafValues>
            2.4527448415756226e-01 -1.7718328535556793e-01</leafValues></_>
        <_>
          <internalNodes>
            0 -1 266 -2.7992827817797661e-03</internalNodes>
          <leafValues>
            2.1843610703945160e-01 -1.9838596880435944e-01</leafValues></_>
        <_>
          <internalNodes>
            0 -1 150 -6.3768923282623291e-03</internalNodes>
          <leafValues>
            4.2016547918319702e-01 -1.0318734496831894e-01</leafValues></_>
        <_>
          <internalNodes>
            0 -1 515 9.9445541854947805e-04</internalNodes>
          <leafValues>
            -8.6250059306621552e-02 4.1485798358917236e-01</leafValues></_>
        <_>
          <internalNodes>
            0 -1 434 -3.2426245161332190e-04</internalNodes>
          <leafValues>
            -3.6839166283607483e-01 1.0382452607154846e-01</leafValues></_>
        <_>
          <internalNodes>
            0 -1 200 -5.1713371649384499e-03</internalNodes>
          <leafValues>
            4.1253069043159485e-01 -9.5020808279514313e-02</leafValues></_>
        <_>
          <internalNodes>
            0 -1 289 -4.2574023245833814e-04</internalNodes>
          <leafValues>
            2.5961017608642578e-01 -1.8704159557819366e-01</leafValues></_>
        <_>
          <internalNodes>
            0 -1 242 -1.9580069929361343e-03</internalNodes>
          <leafValues>
            3.3981233835220337e-01 -1.2758578360080719e-01</leafValues></_>
        <_>
          <internalNodes>
            0 -1 252 1.6744616732466966e-04</internalNodes>
          <leafValues>
            1.0743775218725204e-01 -4.4170138239860535e-01</leafValues></_>
        <_>
          <internalNodes>
            0 -1 395 -9.0847443789243698e-03</internalNodes>
          <leafValues>
            2.9726484417915344e-01 -1.4967250823974609e-01</leafValues></_>
        <_>
          <internalNodes>
            0 -1 46 -6.6180266439914703e-03</internalNodes>
          <leafValues>
            2.5688886642456055e-01 -1.5869170427322388e-01</leafValues></_>
        <_>
          <internalNodes>
            0 -1 192 -1.0099373757839203e-02</internalNodes>
          <leafValues>
            4.3001228570938110e-01 -8.4413833916187286e-02</leafValues></_>
        <_>
          <internalNodes>
            0 -1 86 -2.3642528685741127e-04</internalNodes>
          <leafValues>
            -5.0419825315475464e-01 8.4910549223423004e-02</leafValues></_>
        <_>
          <internalNodes>
            0 -1 265 -6.6723674535751343e-05</internalNodes>
          <leafValues>
            1.8956300616264343e-01 -1.8931533396244049e-01</leafValues></_></weakClassifiers></_>
    <!-- stage 12 -->
    <_>
      <maxWeakCount>40</maxWeakCount>
      <stageThreshold>-7.7758753299713135e-01</stageThreshold>
      <weakClassifiers>
        <_>
          <internalNodes>
            0 -1 83 -7.2230599471367896e-05</internalNodes>
          <leafValues>
            5.0704908370971680e-01 6.9811321794986725e-02</leafValues></_>
        <_>
          <internalNodes>
            0 -1 328 7.2847271803766489e-04</internalNodes>
          <leafValues>
            1.3551947474479675e-01 -4.4449394941329956e-01</leafValues></_>
        <_>
          <internalNodes>
            0 -1 188 -8.1629157066345215e-03</internalNodes>
          <leafValues>
            5.7578879594802856e-01 -8.1415399909019470e-02</leafValues></_>
        <_>
          <internalNodes>
            0 -1 463 -4.3729163706302643e-02</internalNodes>
          <leafValues>
            7.8444935381412506e-02 -4.3866527080535889e-01</leafValues></_>
        <_>
          <internalNodes>
            0 -1 214 -4.1021667420864105e-03</internalNodes>
          <leafValues>
            3.4914484620094299e-01 -1.2799471616744995e-01</leafValues></_>
        <_>
          <internalNodes>
            0 -1 90 1.3547763228416443e-04</internalNodes>
          <leafValues>
            1.6533036530017853e-01 -2.9621663689613342e-01</leafValues></_>
        <_>
          <internalNodes>
            0 -1 388 4.0225265547633171e-04</internalNodes>
          <leafValues>
            9.6480652689933777e-02 -3.5601300001144409e-01</leafValues></_>
        <_>
          <internalNodes>
            0 -1 73 -8.4048155695199966e-03</internalNodes>
          <leafValues>
            3.4706673026084900e-01 -1.2751090526580811e-01</leafValues></_>
        <_>
          <internalNodes>
            0 -1 561 -1.1337471660226583e-03</internalNodes>
          <leafValues>
            4.2715990543365479e-01 -9.6432544291019440e-02</leafValues></_>
        <_>
          <internalNodes>
            0 -1 128 -6.3403770327568054e-03</internalNodes>
          <leafValues>
            4.1195380687713623e-01 -9.6167750656604767e-02</leafValues></_>
        <_>
          <internalNodes>
            0 -1 592 2.0002917153760791e-05</internalNodes>
          <leafValues>
            -2.6509571075439453e-01 1.5577775239944458e-01</leafValues></_>
        <_>
          <internalNodes>
            0 -1 379 2.2056506713852286e-04</internalNodes>
          <leafValues>
            9.6073627471923828e-02 -4.5810985565185547e-01</leafValues></_>
        <_>
          <internalNodes>
            0 -1 360 -7.2930171154439449e-04</internalNodes>
          <leafValues>
            -4.3864881992340088e-01 8.3395905792713165e-02</leafValues></_>
        <_>
          <internalNodes>
            0 -1 318 -3.7806548643857241e-03</internalNodes>
          <leafValues>
            1.8477627635002136e-01 -2.2675500810146332e-01</leafValues></_>
        <_>
          <internalNodes>
            0 -1 497 1.5726562589406967e-02</internalNodes>
          <leafValues>
            -1.1091223359107971e-01 3.8172614574432373e-01</leafValues></_>
        <_>
          <internalNodes>
            0 -1 147 -3.7143222289159894e-04</internalNodes>
          <leafValues>
            4.1750237345695496e-01 -8.5833229124546051e-02</leafValues></_>
        <_>
          <internalNodes>
            0 -1 254 -2.3623515153303742e-04</internalNodes>
          <leafValues>
            -6.6864079236984253e-01 6.2033787369728088e-02</leafValues></_>
        <_>
          <internalNodes>
            0 -1 441 -4.6068925410509109e-02</internalNodes>
          <leafValues>
            6.9132852554321289e-01 -6.2782362103462219e-02</leafValues></_>
        <_>
          <internalNodes>
            0 -1 376 -1.0904102586209774e-02</internalNodes>
          <leafValues>
            2.4359743297100067e-01 -1.7407663166522980e-01</leafValues></_>
        <_>
          <internalNodes>
            0 -1 129 -6.6925154533237219e-04</internalNodes>
          <leafValues>
            4.2221829295158386e-01 -1.0424410551786423e-01</leafValues></_>
        <_>
          <internalNodes>
            0 -1 351 1.2590277474373579e-03</internalNodes>
          <leafValues>
            -1.3146497309207916e-01 3.0655726790428162e-01</leafValues></_>
        <_>
          <internalNodes>
            0 -1 426 3.5938255488872528e-02</internalNodes>
          <leafValues>
            -6.6348873078823090e-02 5.2425193786621094e-01</leafValues></_>
        <_>
          <internalNodes>
            0 -1 55 -5.5992748588323593e-02</internalNodes>
          <leafValues>
            -6.8860477209091187e-01 6.0451183468103409e-02</leafValues></_>
        <_>
          <internalNodes>
            0 -1 334 3.6279382184147835e-03</internalNodes>
          <leafValues>
            5.8333516120910645e-02 -5.6239974498748779e-01</leafValues></_>
        <_>
          <internalNodes>
            0 -1 164 -3.6941925063729286e-03</internalNodes>
          <leafValues>
            3.1885606050491333e-01 -1.2089275568723679e-01</leafValues></_>
        <_>
          <internalNodes>
            0 -1 612 7.2463940341549460e-06</internalNodes>
          <leafValues>
            -2.3896910250186920e-01 1.5049168467521667e-01</leafValues></_>
        <_>
          <internalNodes>
            0 -1 303 4.7136666253209114e-03</internalNodes>
          <leafValues>
            -1.4316397905349731e-01 2.9194813966751099e-01</leafValues></_>
        <_>
          <internalNodes>
            0 -1 71 1.5266987495124340e-02</internalNodes>
          <leafValues>
            -1.0503721237182617e-01 5.0675350427627563e-01</leafValues></_>
        <_>
          <internalNodes>
            0 -1 298 -1.0026097297668457e-03</internalNodes>
          <leafValues>
            2.1707434952259064e-01 -2.2356276214122772e-01</leafValues></_>
        <_>
          <internalNodes>
            0 -1 392 -6.3260336173698306e-04</internalNodes>
          <leafValues>
            -4.2435649037361145e-01 9.5533348619937897e-02</leafValues></_>
        <_>
          <internalNodes>
            0 -1 355 -3.0498453415930271e-03</internalNodes>
          <leafValues>
            -4.3564051389694214e-01 8.4220834076404572e-02</leafValues></_>
        <_>
          <internalNodes>
            0 -1 489 -3.7877209484577179e-02</internalNodes>
          <leafValues>
            -6.3239097595214844e-01 5.9823129326105118e-02</leafValues></_>
        <_>
          <internalNodes>
            0 -1 52 -5.1814047619700432e-03</internalNodes>
          <leafValues>
            5.9019154310226440e-01 -6.8677410483360291e-02</leafValues></_>
        <_>
          <internalNodes>
            0 -1 194 2.3330505064222962e-04</internalNodes>
          <leafValues>
            1.3537149131298065e-01 -2.9327780008316040e-01</leafValues></_>
        <_>
          <internalNodes>
            0 -1 47 -3.4204654395580292e-02</internalNodes>
          <leafValues>
            -7.0070981979370117e-01 5.0034839659929276e-02</leafValues></_>
        <_>
          <internalNodes>
            0 -1 63 4.7778179869055748e-03</internalNodes>
          <leafValues>
            -9.9399365484714508e-02 4.0761670470237732e-01</leafValues></_>
        <_>
          <internalNodes>
            0 -1 241 -2.4420511908829212e-04</internalNodes>
          <leafValues>
            -5.3289848566055298e-01 7.4116356670856476e-02</leafValues></_>
        <_>
          <internalNodes>
            0 -1 54 1.6437031445093453e-04</internalNodes>
          <leafValues>
            1.5167534351348877e-01 -2.6821812987327576e-01</leafValues></_>
        <_>
          <internalNodes>
            0 -1 263 1.2746284483000636e-04</internalNodes>
          <leafValues>
            -1.4486169815063477e-01 2.6054498553276062e-01</leafValues></_>
        <_>
          <internalNodes>
            0 -1 133 -6.4356740949733648e-06</internalNodes>
          <leafValues>
            2.1920120716094971e-01 -1.5912349522113800e-01</leafValues></_></weakClassifiers></_>
    <!-- stage 13 -->
    <_>
      <maxWeakCount>44</maxWeakCount>
      <stageThreshold>-9.1308867931365967e-01</stageThreshold>
      <weakClassifiers>
        <_>
          <internalNodes>
            0 -1 125 9.7770816864795052e-06</internalNodes>
          <leafValues>
            7.2128228843212128e-02 5.1955866813659668e-01</leafValues></_>
        <_>
          <internalNodes>
            0 -1 533 -1.6176592325791717e-03</internalNodes>
          <leafValues>
            3.1846243143081665e-01 -1.3619761168956757e-01</leafValues></_>
        <_>
          <internalNodes>
            0 -1 294 -6.9654744584113359e-04</internalNodes>
          <leafValues>
            -4.1012147068977356e-01 1.0699699074029922e-01</leafValues></_>
        <_>
          <internalNodes>
            0 -1 61 -8.8743492960929871e-03</internalNodes>
          <leafValues>
            3.1089034676551819e-01 -1.4777727425098419e-01</leafValues></_>
        <_>
          <internalNodes>
            0 -1 321 1.5839603729546070e-03</internalNodes>
          <leafValues>
            5.3078413009643555e-02 -5.4125136137008667e-01</leafValues></_>
        <_>
          <internalNodes>
            0 -1 285 -1.7239745706319809e-02</internalNodes>
          <leafValues>
            3.1074374914169312e-01 -1.3932053744792938e-01</leafValues></_>
        <_>
          <internalNodes>
            0 -1 56 -5.4089468903839588e-04</internalNodes>
          <leafValues>
            3.0155786871910095e-01 -1.3878284394741058e-01</leafValues></_>
        <_>
          <internalNodes>
            0 -1 342 -3.5494420444592834e-04</internalNodes>
          <leafValues>
            -6.1464947462081909e-01 6.3728310167789459e-02</leafValues></_>
        <_>
          <internalNodes>
            0 -1 578 -2.8484167996793985e-03</internalNodes>
          <leafValues>
            3.6071184277534485e-01 -1.2091209739446640e-01</leafValues></_>
        <_>
          <internalNodes>
            0 -1 138 -4.4840965420007706e-03</internalNodes>
          <leafValues>
            3.9239737391471863e-01 -1.0783918201923370e-01</leafValues></_>
        <_>
          <internalNodes>
            0 -1 9 -2.2653242945671082e-01</internalNodes>
          <leafValues>
            1.3005712628364563e-01 -3.2380768656730652e-01</leafValues></_>
        <_>
          <internalNodes>
            0 -1 535 8.1518688239157200e-04</internalNodes>
          <leafValues>
            -1.3076944649219513e-01 3.1784740090370178e-01</leafValues></_>
        <_>
          <internalNodes>
            0 -1 349 -3.8191517814993858e-03</internalNodes>
          <leafValues>
            -3.6496326327323914e-01 1.1942752450704575e-01</leafValues></_>
        <_>
          <internalNodes>
            0 -1 139 1.1115517467260361e-02</internalNodes>
          <leafValues>
            -6.1965007334947586e-02 6.4744544029235840e-01</leafValues></_>
        <_>
          <internalNodes>
            0 -1 315 -2.9016651213169098e-02</internalNodes>
          <leafValues>
            2.4799999594688416e-01 -1.6558951139450073e-01</leafValues></_>
        <_>
          <internalNodes>
            0 -1 478 -5.7747131213545799e-03</internalNodes>
          <leafValues>
            3.2717216014862061e-01 -1.2647922337055206e-01</leafValues></_>
        <_>
          <internalNodes>
            0 -1 278 8.2192750414833426e-04</internalNodes>
          <leafValues>
            -2.2164513170719147e-01 1.9285906851291656e-01</leafValues></_>
        <_>
          <internalNodes>
            0 -1 24 -4.5388862490653992e-02</internalNodes>
          <leafValues>
            2.8204390406608582e-01 -1.5413838624954224e-01</leafValues></_>
        <_>
          <internalNodes>
            0 -1 384 3.1708338065072894e-04</internalNodes>
          <leafValues>
            8.1103280186653137e-02 -5.6445491313934326e-01</leafValues></_>
        <_>
          <internalNodes>
            0 -1 425 6.8208068842068315e-04</internalNodes>
          <leafValues>
            -1.2185069173574448e-01 3.8870969414710999e-01</leafValues></_>
        <_>
          <internalNodes>
            0 -1 178 2.3680454120039940e-02</internalNodes>
          <leafValues>
            -1.2512382864952087e-01 3.3014470338821411e-01</leafValues></_>
        <_>
          <internalNodes>
            0 -1 218 7.3599128518253565e-04</internalNodes>
          <leafValues>
            1.1966219544410706e-01 -3.6208555102348328e-01</leafValues></_>
        <_>
          <internalNodes>
            0 -1 440 5.1981499418616295e-03</internalNodes>
          <leafValues>
            -7.2053678333759308e-02 6.0552579164505005e-01</leafValues></_>
        <_>
          <internalNodes>
            0 -1 105 2.0437440980458632e-05</internalNodes>
          <leafValues>
            -1.5902775526046753e-01 2.4974371492862701e-01</leafValues></_>
        <_>
          <internalNodes>
            0 -1 561 -1.7996558453887701e-03</internalNodes>
          <leafValues>
            5.6688076257705688e-01 -7.2659760713577271e-02</leafValues></_>
        <_>
          <internalNodes>
            0 -1 261 -2.7762796729803085e-02</internalNodes>
          <leafValues>
            3.6771941184997559e-01 -9.6064113080501556e-02</leafValues></_>
        <_>
          <internalNodes>
            0 -1 22 -6.2726542353630066e-02</internalNodes>
          <leafValues>
            4.3831655383110046e-01 -9.5568522810935974e-02</leafValues></_>
        <_>
          <internalNodes>
            0 -1 363 -6.5205106511712074e-03</internalNodes>
          <leafValues>
            7.5809848308563232e-01 -5.1176201552152634e-02</leafValues></_>
        <_>
          <internalNodes>
            0 -1 553 1.3071580324321985e-03</internalNodes>
          <leafValues>
            -8.8633574545383453e-02 3.9816918969154358e-01</leafValues></_>
        <_>
          <internalNodes>
            0 -1 560 3.5132586956024170e-02</internalNodes>
          <leafValues>
            9.0910449624061584e-02 -4.8053359985351563e-01</leafValues></_>
        <_>
          <internalNodes>
            0 -1 327 7.8257150016725063e-04</internalNodes>
          <leafValues>
            6.9017633795738220e-02 -5.3848534822463989e-01</leafValues></_>
        <_>
          <internalNodes>
            0 -1 514 -3.5202216822654009e-03</internalNodes>
          <leafValues>
            2.9156959056854248e-01 -1.4603525400161743e-01</leafValues></_>
        <_>
          <internalNodes>
            0 -1 498 -7.1976915933191776e-04</internalNodes>
          <leafValues>
            3.0542066693305969e-01 -1.3075107336044312e-01</leafValues></_>
        <_>
          <internalNodes>
            0 -1 495 -1.2047511991113424e-03</internalNodes>
          <leafValues>
            1.5346926450729370e-01 -2.9182437062263489e-01</leafValues></_>
        <_>
          <internalNodes>
            0 -1 262 -1.4884473755955696e-02</internalNodes>
          <leafValues>
            3.8060060143470764e-01 -1.0414313524961472e-01</leafValues></_>
        <_>
          <internalNodes>
            0 -1 401 2.5803269818425179e-04</internalNodes>
          <leafValues>
            7.1328870952129364e-02 -5.4449898004531860e-01</leafValues></_>
        <_>
          <internalNodes>
            0 -1 501 1.3469586847350001e-03</internalNodes>
          <leafValues>
            -1.2113527953624725e-01 2.9190325736999512e-01</leafValues></_>
        <_>
          <internalNodes>
            0 -1 153 4.1547445580363274e-03</internalNodes>
          <leafValues>
            -7.9304866492748260e-02 4.1394504904747009e-01</leafValues></_>
        <_>
          <internalNodes>
            0 -1 85 -2.2937748581171036e-03</internalNodes>
          <leafValues>
            2.5543877482414246e-01 -1.6523404419422150e-01</leafValues></_>
        <_>
          <internalNodes>
            0 -1 404 1.5041729784570634e-04</internalNodes>
          <leafValues>
            7.4094653129577637e-02 -4.7280758619308472e-01</leafValues></_>
        <_>
          <internalNodes>
            0 -1 549 -1.1009303852915764e-03</internalNodes>
          <leafValues>
            3.4027254581451416e-01 -1.1756830662488937e-01</leafValues></_>
        <_>
          <internalNodes>
            0 -1 589 -1.0698473779484630e-03</internalNodes>
          <leafValues>
            -4.2139402031898499e-01 8.7373636662960052e-02</leafValues></_>
        <_>
          <internalNodes>
            0 -1 418 3.3718365011736751e-04</internalNodes>
          <leafValues>
            6.3156872987747192e-02 -5.6296783685684204e-01</leafValues></_>
        <_>
          <internalNodes>
            0 -1 484 -2.2703991271555424e-03</internalNodes>
          <leafValues>
            2.5930073857307434e-01 -1.5300536155700684e-01</leafValues></_></weakClassifiers></_>
    <!-- stage 14 -->
    <_>
      <maxWeakCount>41</maxWeakCount>
      <stageThreshold>-7.6882344484329224e-01</stageThreshold>
      <weakClassifiers>
        <_>
          <internalNodes>
            0 -1 275 2.6685968623496592e-04</internalNodes>
          <leafValues>
            4.2482268810272217e-01 -2.7272728085517883e-01</leafValues></_>
        <_>
          <internalNodes>
            0 -1 58 -8.6076976731419563e-03</internalNodes>
          <leafValues>
            3.9277651906013489e-01 -1.2683473527431488e-01</leafValues></_>
        <_>
          <internalNodes>
            0 -1 393 -2.3804635275155306e-03</internalNodes>
          <leafValues>
            2.0644146203994751e-01 -2.1368636190891266e-01</leafValues></_>
        <_>
          <internalNodes>
            0 -1 407 5.5538228480145335e-04</internalNodes>
          <leafValues>
            1.1954925209283829e-01 -3.7491342425346375e-01</leafValues></_>
        <_>
          <internalNodes>
            0 -1 516 8.2190614193677902e-04</internalNodes>
          <leafValues>
            -6.9688074290752411e-02 6.5853303670883179e-01</leafValues></_>
        <_>
          <internalNodes>
            0 -1 296 -3.3893678337335587e-03</internalNodes>
          <leafValues>
            3.7512800097465515e-01 -1.2350454926490784e-01</leafValues></_>
        <_>
          <internalNodes>
            0 -1 210 -1.4337354805320501e-03</internalNodes>
          <leafValues>
            2.7176341414451599e-01 -1.9778174161911011e-01</leafValues></_>
        <_>
          <internalNodes>
            0 -1 324 -8.1370119005441666e-04</internalNodes>
          <leafValues>
            2.5104114413261414e-01 -1.9167630374431610e-01</leafValues></_>
        <_>
          <internalNodes>
            0 -1 13 -1.5027272701263428e-01</internalNodes>
          <leafValues>
            1.3622580468654633e-01 -3.8642835617065430e-01</leafValues></_>
        <_>
          <internalNodes>
            0 -1 257 -1.1894323397427797e-03</internalNodes>
          <leafValues>
            -6.4845120906829834e-01 5.7756870985031128e-02</leafValues></_>
        <_>
          <internalNodes>
            0 -1 554 1.8027245998382568e-02</internalNodes>
          <leafValues>
            8.6464472115039825e-02 -4.4609361886978149e-01</leafValues></_>
        <_>
          <internalNodes>
            0 -1 302 -3.1768651679158211e-03</internalNodes>
          <leafValues>
            3.9083716273307800e-01 -1.0454042255878448e-01</leafValues></_>
        <_>
          <internalNodes>
            0 -1 479 2.4548284709453583e-02</internalNodes>
          <leafValues>
            -1.2855815887451172e-01 3.1524232029914856e-01</leafValues></_>
        <_>
          <internalNodes>
            0 -1 590 -9.0016089379787445e-03</internalNodes>
          <leafValues>
            -6.0922485589981079e-01 6.8459726870059967e-02</leafValues></_>
        <_>
          <internalNodes>
            0 -1 120 -6.7992461845278740e-03</internalNodes>
          <leafValues>
            3.7061434984207153e-01 -1.2433050572872162e-01</leafValues></_>
        <_>
          <internalNodes>
            0 -1 359 5.5879366118460894e-04</internalNodes>
          <leafValues>
            8.4697574377059937e-02 -5.3136354684829712e-01</leafValues></_>
        <_>
          <internalNodes>
            0 -1 584 -2.1369555033743382e-03</internalNodes>
          <leafValues>
            4.2648872733116150e-01 -1.1021260172128677e-01</leafValues></_>
        <_>
          <internalNodes>
            0 -1 185 -2.7440860867500305e-03</internalNodes>
          <leafValues>
            2.9295578598976135e-01 -1.3597372174263000e-01</leafValues></_>
        <_>
          <internalNodes>
            0 -1 288 -5.1652593538165092e-03</internalNodes>
          <leafValues>
            1.8751507997512817e-01 -2.3875537514686584e-01</leafValues></_>
        <_>
          <internalNodes>
            0 -1 447 -1.0204970091581345e-01</internalNodes>
          <leafValues>
            -6.1707597970962524e-01 6.6304288804531097e-02</leafValues></_>
        <_>
          <internalNodes>
            0 -1 387 -5.0129130249843001e-04</internalNodes>
          <leafValues>
            -6.3924378156661987e-01 5.6490205228328705e-02</leafValues></_>
        <_>
          <internalNodes>
            0 -1 564 2.4164551869034767e-03</internalNodes>
          <leafValues>
            -1.3515503704547882e-01 2.9771623015403748e-01</leafValues></_>
        <_>
          <internalNodes>
            0 -1 583 -3.6716833710670471e-04</internalNodes>
          <leafValues>
            3.0317696928977966e-01 -1.4585652947425842e-01</leafValues></_>
        <_>
          <internalNodes>
            0 -1 414 1.0762105230242014e-03</internalNodes>
          <leafValues>
            5.3975552320480347e-02 -7.4643713235855103e-01</leafValues></_>
        <_>
          <internalNodes>
            0 -1 136 1.9604293629527092e-03</internalNodes>
          <leafValues>
            -7.9406000673770905e-02 5.7152068614959717e-01</leafValues></_>
        <_>
          <internalNodes>
            0 -1 325 3.6907344474457204e-04</internalNodes>
          <leafValues>
            7.1263015270233154e-02 -5.5396598577499390e-01</leafValues></_>
        <_>
          <internalNodes>
            0 -1 544 9.3161989934742451e-04</internalNodes>
          <leafValues>
            -8.4777258336544037e-02 5.0414270162582397e-01</leafValues></_>
        <_>
          <internalNodes>
            0 -1 124 -1.4058878645300865e-02</internalNodes>
          <leafValues>
            6.6289967298507690e-01 -5.0196848809719086e-02</leafValues></_>
        <_>
          <internalNodes>
            0 -1 107 -1.9011640688404441e-03</internalNodes>
          <leafValues>
            3.2039076089859009e-01 -1.2417904287576675e-01</leafValues></_>
        <_>
          <internalNodes>
            0 -1 453 -1.4471787214279175e-01</internalNodes>
          <leafValues>
            -8.8783502578735352e-01 4.4983390718698502e-02</leafValues></_>
        <_>
          <internalNodes>
            0 -1 209 -4.9407116603106260e-04</internalNodes>
          <leafValues>
            -3.1818366050720215e-01 1.0853698849678040e-01</leafValues></_>
        <_>
          <internalNodes>
            0 -1 481 -4.0693772025406361e-03</internalNodes>
          <leafValues>
            2.0867358148097992e-01 -2.0013889670372009e-01</leafValues></_>
        <_>
          <internalNodes>
            0 -1 350 2.0784903317689896e-03</internalNodes>
          <leafValues>
            -7.5158961117267609e-02 4.6768000721931458e-01</leafValues></_>
        <_>
          <internalNodes>
            0 -1 281 -8.8246855884790421e-03</internalNodes>
          <leafValues>
            5.5357056856155396e-01 -6.4376711845397949e-02</leafValues></_>
        <_>
          <internalNodes>
            0 -1 409 4.2444597929716110e-03</internalNodes>
          <leafValues>
            -1.1330962181091309e-01 3.2317796349525452e-01</leafValues></_>
        <_>
          <internalNodes>
            0 -1 558 1.2118086218833923e-02</internalNodes>
          <leafValues>
            7.0144958794116974e-02 -5.7772576808929443e-01</leafValues></_>
        <_>
          <internalNodes>
            0 -1 576 7.5192783697275445e-06</internalNodes>
          <leafValues>
            -2.8649777173995972e-01 1.4287538826465607e-01</leafValues></_>
        <_>
          <internalNodes>
            0 -1 357 -6.6684401826933026e-04</internalNodes>
          <leafValues>
            -3.9054360985755920e-01 9.9938921630382538e-02</leafValues></_>
        <_>
          <internalNodes>
            0 -1 96 1.0411927942186594e-03</internalNodes>
          <leafValues>
            -1.3262937963008881e-01 2.9656752943992615e-01</leafValues></_>
        <_>
          <internalNodes>
            0 -1 176 -5.6899670511484146e-02</internalNodes>
          <leafValues>
            2.4580286443233490e-01 -1.5439975261688232e-01</leafValues></_>
        <_>
          <internalNodes>
            0 -1 439 -4.4762538745999336e-03</internalNodes>
          <leafValues>
            2.4691514670848846e-01 -1.6558548808097839e-01</leafValues></_></weakClassifiers></_>
    <!-- stage 15 -->
    <_>
      <maxWeakCount>31</maxWeakCount>
      <stageThreshold>-6.6918784379959106e-01</stageThreshold>
      <weakClassifiers>
        <_>
          <internalNodes>
            0 -1 368 -2.5202163960784674e-03</internalNodes>
          <leafValues>
            5.3802818059921265e-01 1.2071534991264343e-01</leafValues></_>
        <_>
          <internalNodes>
            0 -1 155 4.3693017214536667e-03</internalNodes>
          <leafValues>
            -1.3895277678966522e-01 3.3232712745666504e-01</leafValues></_>
        <_>
          <internalNodes>
            0 -1 279 2.5045959046110511e-04</internalNodes>
          <leafValues>
            9.6346236765384674e-02 -6.1111658811569214e-01</leafValues></_>
        <_>
          <internalNodes>
            0 -1 53 -5.6464541703462601e-03</internalNodes>
          <leafValues>
            3.2340678572654724e-01 -1.8427793681621552e-01</leafValues></_>
        <_>
          <internalNodes>
            0 -1 222 2.8038611635565758e-03</internalNodes>
          <leafValues>
            -1.4816255867481232e-01 4.0731304883956909e-01</leafValues></_>
        <_>
          <internalNodes>
            0 -1 374 -1.1473476886749268e-01</internalNodes>
          <leafValues>
            1.6473227739334106e-01 -3.2368966937065125e-01</leafValues></_>
        <_>
          <internalNodes>
            0 -1 23 -2.8652502223849297e-02</internalNodes>
          <leafValues>
            2.4339075386524200e-01 -2.2756433486938477e-01</leafValues></_>
        <_>
          <internalNodes>
            0 -1 246 -1.3111664447933435e-03</internalNodes>
          <leafValues>
            3.0623102188110352e-01 -1.9805480539798737e-01</leafValues></_>
        <_>
          <internalNodes>
            0 -1 529 1.2089410796761513e-02</internalNodes>
          <leafValues>
            -1.0540688782930374e-01 4.8536610603332520e-01</leafValues></_>
        <_>
          <internalNodes>
            0 -1 291 -1.1435877531766891e-03</internalNodes>
          <leafValues>
            -5.2597427368164063e-01 1.0064934194087982e-01</leafValues></_>
        <_>
          <internalNodes>
            0 -1 417 -7.9622783232480288e-05</internalNodes>
          <leafValues>
            2.3914581537246704e-01 -1.9536967575550079e-01</leafValues></_>
        <_>
          <internalNodes>
            0 -1 605 -3.0539969448000193e-03</internalNodes>
          <leafValues>
            -5.3062552213668823e-01 9.1113097965717316e-02</leafValues></_>
        <_>
          <internalNodes>
            0 -1 230 3.7617469206452370e-04</internalNodes>
          <leafValues>
            7.4426405131816864e-02 -5.3484499454498291e-01</leafValues></_>
        <_>
          <internalNodes>
            0 -1 492 -1.0718724224716425e-03</internalNodes>
          <leafValues>
            4.1099846363067627e-01 -1.1373145878314972e-01</leafValues></_>
        <_>
          <internalNodes>
            0 -1 493 5.3985189879313111e-04</internalNodes>
          <leafValues>
            -1.1686557531356812e-01 3.7285909056663513e-01</leafValues></_>
        <_>
          <internalNodes>
            0 -1 494 -6.4222455024719238e-02</internalNodes>
          <leafValues>
            -7.1109521389007568e-01 5.6716591119766235e-02</leafValues></_>
        <_>
          <internalNodes>
            0 -1 433 -2.8710372862406075e-04</internalNodes>
          <leafValues>
            1.9854465126991272e-01 -1.9528517127037048e-01</leafValues></_>
        <_>
          <internalNodes>
            0 -1 616 -2.8202678076922894e-03</internalNodes>
          <leafValues>
            -4.1370436549186707e-01 9.8589062690734863e-02</leafValues></_>
        <_>
          <internalNodes>
            0 -1 293 5.9853063430637121e-04</internalNodes>
          <leafValues>
            9.5275752246379852e-02 -3.9765679836273193e-01</leafValues></_>
        <_>
          <internalNodes>
            0 -1 272 6.2497420003637671e-04</internalNodes>
          <leafValues>
            -1.1336848139762878e-01 3.6576405167579651e-01</leafValues></_>
        <_>
          <internalNodes>
            0 -1 18 -3.9020555559545755e-03</internalNodes>
          <leafValues>
            4.4435814023017883e-01 -8.6629182100296021e-02</leafValues></_>
        <_>
          <internalNodes>
            0 -1 341 7.2780135087668896e-04</internalNodes>
          <leafValues>
            8.5430547595024109e-02 -5.0216591358184814e-01</leafValues></_>
        <_>
          <internalNodes>
            0 -1 601 -6.4310142770409584e-03</internalNodes>
          <leafValues>
            -5.5066269636154175e-01 7.3224067687988281e-02</leafValues></_>
        <_>
          <internalNodes>
            0 -1 438 -1.6287690028548241e-02</internalNodes>
          <leafValues>
            2.3223590850830078e-01 -1.8219655752182007e-01</leafValues></_>
        <_>
          <internalNodes>
            0 -1 44 9.4283297657966614e-03</internalNodes>
          <leafValues>
            -7.7167674899101257e-02 5.0500786304473877e-01</leafValues></_>
        <_>
          <internalNodes>
            0 -1 167 1.8741658423095942e-03</internalNodes>
          <leafValues>
            -1.1474999040365219e-01 3.2973051071166992e-01</leafValues></_>
        <_>
          <internalNodes>
            0 -1 320 -2.5657927617430687e-03</internalNodes>
          <leafValues>
            1.6930197179317474e-01 -2.5937929749488831e-01</leafValues></_>
        <_>
          <internalNodes>
            0 -1 448 -2.6746650109998882e-04</internalNodes>
          <leafValues>
            -3.4149438142776489e-01 1.2118370831012726e-01</leafValues></_>
        <_>
          <internalNodes>
            0 -1 15 -1.5263712033629417e-02</internalNodes>
          <leafValues>
            2.8369340300559998e-01 -1.4040260016918182e-01</leafValues></_>
        <_>
          <internalNodes>
            0 -1 369 -7.3243547230958939e-03</internalNodes>
          <leafValues>
            -5.5173730850219727e-01 8.1453248858451843e-02</leafValues></_>
        <_>
          <internalNodes>
            0 -1 269 -9.5551984850317240e-04</internalNodes>
          <leafValues>
            2.6445621252059937e-01 -1.5651352703571320e-01</leafValues></_></weakClassifiers></_>
    <!-- stage 16 -->
    <_>
      <maxWeakCount>35</maxWeakCount>
      <stageThreshold>-8.8310384750366211e-01</stageThreshold>
      <weakClassifiers>
        <_>
          <internalNodes>
            0 -1 345 -6.1055121477693319e-04</internalNodes>
          <leafValues>
            -5.2653062343597412e-01 4.3384400010108948e-01</leafValues></_>
        <_>
          <internalNodes>
            0 -1 541 7.5192783697275445e-06</internalNodes>
          <leafValues>
            -2.5309973955154419e-01 2.8949812054634094e-01</leafValues></_>
        <_>
          <internalNodes>
            0 -1 69 -3.2786768861114979e-03</internalNodes>
          <leafValues>
            2.9063642024993896e-01 -2.2566379606723785e-01</leafValues></_>
        <_>
          <internalNodes>
            0 -1 606 6.1197724789963104e-06</internalNodes>
          <leafValues>
            -2.7713871002197266e-01 2.0537768304347992e-01</leafValues></_>
        <_>
          <internalNodes>
            0 -1 306 -6.0746620874851942e-04</internalNodes>
          <leafValues>
            -7.2850108146667480e-01 7.7919326722621918e-02</leafValues></_>
        <_>
          <internalNodes>
            0 -1 169 8.9006479829549789e-03</internalNodes>
          <leafValues>
            -9.5150798559188843e-02 6.5249454975128174e-01</leafValues></_>
        <_>
          <internalNodes>
            0 -1 189 -2.7641300112009048e-03</internalNodes>
          <leafValues>
            3.1561905145645142e-01 -1.8051245808601379e-01</leafValues></_>
        <_>
          <internalNodes>
            0 -1 551 6.6309503745287657e-04</internalNodes>
          <leafValues>
            -1.1878931522369385e-01 4.7078391909599304e-01</leafValues></_>
        <_>
          <internalNodes>
            0 -1 429 -6.5884520299732685e-03</internalNodes>
          <leafValues>
            2.2622312605381012e-01 -2.1319350600242615e-01</leafValues></_>
        <_>
          <internalNodes>
            0 -1 517 -4.6656490303575993e-04</internalNodes>
          <leafValues>
            3.7173748016357422e-01 -1.3313616812229156e-01</leafValues></_>
        <_>
          <internalNodes>
            0 -1 156 1.2454285752028227e-03</internalNodes>
          <leafValues>
            8.7917394936084747e-02 -5.5696505308151245e-01</leafValues></_>
        <_>
          <internalNodes>
            0 -1 517 9.6253963420167565e-04</internalNodes>
          <leafValues>
            -1.0602026432752609e-01 4.7418093681335449e-01</leafValues></_>
        <_>
          <internalNodes>
            0 -1 76 -6.1406585700751748e-06</internalNodes>
          <leafValues>
            1.8633280694484711e-01 -2.4152137339115143e-01</leafValues></_>
        <_>
          <internalNodes>
            0 -1 160 -3.1161189079284668e-02</internalNodes>
          <leafValues>
            3.5283002257347107e-01 -1.2834230065345764e-01</leafValues></_>
        <_>
          <internalNodes>
            0 -1 526 -6.4371265470981598e-02</internalNodes>
          <leafValues>
            -7.1270507574081421e-01 6.4711570739746094e-02</leafValues></_>
        <_>
          <internalNodes>
            0 -1 140 -5.9464154765009880e-03</internalNodes>
          <leafValues>
            4.4525495171546936e-01 -1.0168086737394333e-01</leafValues></_>
        <_>
          <internalNodes>
            0 -1 208 -2.5229442398995161e-03</internalNodes>
          <leafValues>
            3.2836136221885681e-01 -1.6058453917503357e-01</leafValues></_>
        <_>
          <internalNodes>
            0 -1 408 3.3863569842651486e-04</internalNodes>
          <leafValues>
            8.0276176333427429e-02 -6.2083864212036133e-01</leafValues></_>
        <_>
          <internalNodes>
            0 -1 211 -9.6243619918823242e-03</internalNodes>
          <leafValues>
            8.0880796909332275e-01 -7.1634203195571899e-02</leafValues></_>
        <_>
          <internalNodes>
