<?xml version="1.0"?>
<opencv_storage>
<stage0>
  <maxWeakCount>8</maxWeakCount>
  <stageThreshold>-9.4428968429565430e-01</stageThreshold>
  <weakClassifiers>
    <_>
      <internalNodes>
        0 -1 425845 6.2817595899105072e-03</internalNodes>
      <leafValues>
        5.9018987417221069e-01 -6.3667231798171997e-01</leafValues></_>
    <_>
      <internalNodes>
        0 -1 30510 -1.3365183025598526e-02</internalNodes>
      <leafValues>
        7.3898059129714966e-01 -2.7122998237609863e-01</leafValues></_>
    <_>
      <internalNodes>
        0 -1 60284 -4.2301318608224392e-03</internalNodes>
      <leafValues>
        8.0506920814514160e-01 -2.3210653662681580e-01</leafValues></_>
    <_>
      <internalNodes>
        0 -1 30533 -7.7093327490729280e-06</internalNodes>
      <leafValues>
        4.2874783277511597e-01 -4.3647015094757080e-01</leafValues></_>
    <_>
      <internalNodes>
        0 -1 59424 -3.4593963064253330e-03</internalNodes>
      <leafValues>
        7.4587237834930420e-01 -1.9848719239234924e-01</leafValues></_>
    <_>
      <internalNodes>
        0 -1 509685 6.2537774283555336e-06</internalNodes>
      <leafValues>
        -4.5118856430053711e-01 4.3431544303894043e-01</leafValues></_>
    <_>
      <internalNodes>
        0 -1 129497 -1.6946546733379364e-02</internalNodes>
      <leafValues>
        8.8089931011199951e-01 -1.7435678839683533e-01</leafValues></_>
    <_>
      <internalNodes>
        0 -1 144639 -5.7584393769502640e-02</internalNodes>
      <leafValues>
        -7.6387059688568115e-01 2.2935964167118073e-01</leafValues></_></weakClassifiers></stage0>
</opencv_storage>
