<?xml version="1.0"?>
<opencv_storage>
<stage18>
  <maxWeakCount>42</maxWeakCount>
  <stageThreshold>-7.8092890977859497e-01</stageThreshold>
  <weakClassifiers>
    <_>
      <internalNodes>
        0 -1 509689 -6.8647461012005806e-04</internalNodes>
      <leafValues>
        -4.6875000000000000e-01 4.1264957189559937e-01</leafValues></_>
    <_>
      <internalNodes>
        0 -1 31274 -6.1383075262710918e-06</internalNodes>
      <leafValues>
        2.0602825284004211e-01 -2.6420792937278748e-01</leafValues></_>
    <_>
      <internalNodes>
        0 -1 168675 -5.2699041552841663e-03</internalNodes>
      <leafValues>
        -3.2603576779365540e-01 1.3739749789237976e-01</leafValues></_>
    <_>
      <internalNodes>
        0 -1 509652 2.3574049919261597e-05</internalNodes>
      <leafValues>
        -2.5353112816810608e-01 1.6613782942295074e-01</leafValues></_>
    <_>
      <internalNodes>
        0 -1 240028 -4.3724989518523216e-03</internalNodes>
      <leafValues>
        4.2507487535476685e-01 -9.7828768193721771e-02</leafValues></_>
    <_>
      <internalNodes>
        0 -1 191714 3.9863758720457554e-03</internalNodes>
      <leafValues>
        -1.5731556713581085e-01 3.1548821926116943e-01</leafValues></_>
    <_>
      <internalNodes>
        0 -1 67617 -8.7707534432411194e-02</internalNodes>
      <leafValues>
        2.8140032291412354e-01 -1.8644262850284576e-01</leafValues></_>
    <_>
      <internalNodes>
        0 -1 79439 -7.4413907714188099e-04</internalNodes>
      <leafValues>
        3.4740558266639709e-01 -1.1035575717687607e-01</leafValues></_>
    <_>
      <internalNodes>
        0 -1 310028 4.7466158866882324e-04</internalNodes>
      <leafValues>
        7.9520955681800842e-02 -4.4801655411720276e-01</leafValues></_>
    <_>
      <internalNodes>
        0 -1 24145 -4.0202267467975616e-02</internalNodes>
      <leafValues>
        -4.3361052870750427e-01 8.5440948605537415e-02</leafValues></_>
    <_>
      <internalNodes>
        0 -1 118247 -2.6261862367391586e-02</internalNodes>
      <leafValues>
        3.6553201079368591e-01 -1.1505290865898132e-01</leafValues></_>
    <_>
      <internalNodes>
        0 -1 117930 -2.1584476344287395e-03</internalNodes>
      <leafValues>
        2.6809838414192200e-01 -1.6966275870800018e-01</leafValues></_>
    <_>
      <internalNodes>
        0 -1 479436 -8.7314646225422621e-04</internalNodes>
      <leafValues>
        3.9929145574569702e-01 -9.7250126302242279e-02</leafValues></_>
    <_>
      <internalNodes>
        0 -1 479431 7.6134252594783902e-04</internalNodes>
      <leafValues>
        -8.3440192043781281e-02 4.4597390294075012e-01</leafValues></_>
    <_>
      <internalNodes>
        0 -1 30546 -3.6791968159377575e-04</internalNodes>
      <leafValues>
        1.5546055138111115e-01 -2.5386983156204224e-01</leafValues></_>
    <_>
      <internalNodes>
        0 -1 246058 2.8364956961013377e-04</internalNodes>
      <leafValues>
        8.1331983208656311e-02 -5.4539197683334351e-01</leafValues></_>
    <_>
      <internalNodes>
        0 -1 347067 -5.8077380526810884e-04</internalNodes>
      <leafValues>
        -3.8758826255798340e-01 9.6612244844436646e-02</leafValues></_>
    <_>
      <internalNodes>
        0 -1 195576 -1.4967287424951792e-03</internalNodes>
      <leafValues>
        2.6908516883850098e-01 -1.4371864497661591e-01</leafValues></_>
    <_>
      <internalNodes>
        0 -1 218741 -1.6580085502937436e-03</internalNodes>
      <leafValues>
        3.4135958552360535e-01 -1.3968095183372498e-01</leafValues></_>
    <_>
      <internalNodes>
        0 -1 243602 -5.1006097346544266e-03</internalNodes>
      <leafValues>
        2.4388457834720612e-01 -1.5383283793926239e-01</leafValues></_>
    <_>
      <internalNodes>
        0 -1 24477 -9.5601221546530724e-03</internalNodes>
      <leafValues>
        -5.0717669725418091e-01 7.4205562472343445e-02</leafValues></_>
    <_>
      <internalNodes>
        0 -1 509636 -7.8378561738645658e-06</internalNodes>
      <leafValues>
        2.3009115457534790e-01 -1.5694224834442139e-01</leafValues></_>
    <_>
      <internalNodes>
        0 -1 381168 -2.1366565488278866e-04</internalNodes>
      <leafValues>
        -6.4379930496215820e-01 5.1378503441810608e-02</leafValues></_>
    <_>
      <internalNodes>
        0 -1 329487 -9.9460827186703682e-04</internalNodes>
      <leafValues>
        1.5808342397212982e-01 -2.2993467748165131e-01</leafValues></_>
    <_>
      <internalNodes>
        0 -1 27551 -2.0741909742355347e-01</internalNodes>
      <leafValues>
        -5.5722075700759888e-01 7.2392366826534271e-02</leafValues></_>
    <_>
      <internalNodes>
        0 -1 501608 6.1197724789963104e-06</internalNodes>
      <leafValues>
        -2.0270405709743500e-01 1.6993239521980286e-01</leafValues></_>
    <_>
      <internalNodes>
        0 -1 195040 -2.6182886213064194e-03</internalNodes>
      <leafValues>
        3.1080210208892822e-01 -1.1330851167440414e-01</leafValues></_>
    <_>
      <internalNodes>
        0 -1 324968 -1.4175361720845103e-03</internalNodes>
      <leafValues>
        2.5445064902305603e-01 -1.8368922173976898e-01</leafValues></_>
    <_>
      <internalNodes>
        0 -1 298552 -8.4483146201819181e-04</internalNodes>
      <leafValues>
        -4.9750864505767822e-01 7.2379149496555328e-02</leafValues></_>
    <_>
      <internalNodes>
        0 -1 447021 -2.9163793078623712e-04</internalNodes>
      <leafValues>
        1.4606057107448578e-01 -2.4399784207344055e-01</leafValues></_>
    <_>
      <internalNodes>
        0 -1 222121 -6.4356740949733648e-06</internalNodes>
      <leafValues>
        2.0453755557537079e-01 -1.7913553118705750e-01</leafValues></_>
    <_>
      <internalNodes>
        0 -1 123914 9.0277276467531919e-04</internalNodes>
      <leafValues>
        -6.7753203213214874e-02 5.2494037151336670e-01</leafValues></_>
    <_>
      <internalNodes>
        0 -1 299570 1.7733145505189896e-03</internalNodes>
      <leafValues>
        6.7216999828815460e-02 -5.6613475084304810e-01</leafValues></_>
    <_>
      <internalNodes>
        0 -1 448003 -2.2868681699037552e-03</internalNodes>
      <leafValues>
        1.8222886323928833e-01 -1.9479346275329590e-01</leafValues></_>
    <_>
      <internalNodes>
        0 -1 496628 -2.3692753165960312e-03</internalNodes>
      <leafValues>
        3.5775992274284363e-01 -1.1141414195299149e-01</leafValues></_>
    <_>
      <internalNodes>
        0 -1 55299 -1.3882836326956749e-02</internalNodes>
      <leafValues>
        -2.8957208991050720e-01 1.3209640979766846e-01</leafValues></_>
    <_>
      <internalNodes>
        0 -1 379548 1.1991882696747780e-02</internalNodes>
      <leafValues>
        -1.2453000992536545e-01 3.2698673009872437e-01</leafValues></_>
    <_>
      <internalNodes>
        0 -1 461070 -4.1014157235622406e-02</internalNodes>
      <leafValues>
        1.3990557193756104e-01 -3.5582575201988220e-01</leafValues></_>
    <_>
      <internalNodes>
        0 -1 487167 -2.9309734236449003e-03</internalNodes>
      <leafValues>
        2.7056598663330078e-01 -1.5429870784282684e-01</leafValues></_>
    <_>
      <internalNodes>
        0 -1 497346 2.0986704621464014e-03</internalNodes>
      <leafValues>
        -2.2786876559257507e-01 1.7373248934745789e-01</leafValues></_>
    <_>
      <internalNodes>
        0 -1 286625 -3.8689150824211538e-04</internalNodes>
      <leafValues>
        -4.1020026803016663e-01 1.0604359209537506e-01</leafValues></_>
    <_>
      <internalNodes>
        0 -1 164355 -5.8166948147118092e-03</internalNodes>
      <leafValues>
        3.1478932499885559e-01 -1.5915630757808685e-01</leafValues></_></weakClassifiers></stage18>
</opencv_storage>
